booster[0]:
0:leaf=-0.38709200
booster[1]:
0:leaf=-0.32267600
booster[2]:
0:[1063<3.154950e+00] yes=1,no=2,missing=1
	1:leaf=-0.47403600
	2:leaf=-0.05197600
booster[3]:
0:[2627<2.507370e+00] yes=1,no=2,missing=1
	1:leaf=-0.42055200
	2:leaf=-0.04646720
booster[4]:
0:[2178<1.843730e+00] yes=1,no=2,missing=1
	1:[1970<1.788960e+00] yes=3,no=4,missing=3
		3:leaf=-0.47595800
		4:leaf=-0.08863080
	2:leaf=-0.04154660
booster[5]:
0:[3585<3.580400e+00] yes=1,no=2,missing=1
	1:[463<9.456070e-01] yes=3,no=4,missing=3
		3:[3736<-4.167480e-01] yes=5,no=6,missing=5
			5:leaf=-0.41019600
			6:leaf=-0.06182340
		4:[2503<7.684850e-02] yes=7,no=8,missing=7
			7:leaf=-0.09728660
			8:leaf=0.01249960
	2:leaf=-0.01151050
booster[6]:
0:[3708<-4.547760e-01] yes=1,no=2,missing=1
	1:[3494<1.846080e+00] yes=3,no=4,missing=3
		3:[790<4.323420e-01] yes=5,no=6,missing=5
			5:leaf=-0.34921200
			6:leaf=-0.04161860
		4:[2049<1.267870e-01] yes=7,no=8,missing=7
			7:leaf=0.03389340
			8:leaf=-0.07525900
	2:leaf=-0.00538172
booster[7]:
0:[2747<2.184250e+00] yes=1,no=2,missing=1
	1:[3789<9.511170e-01] yes=7,no=8,missing=7
		7:[1121<3.933530e-01] yes=9,no=10,missing=9
			9:leaf=-0.30660200
			10:leaf=-0.08579180
		8:[3205<4.250650e-01] yes=11,no=12,missing=11
			11:leaf=0.02454160
			12:leaf=-0.08059000
	2:[1937<3.071650e-02] yes=3,no=4,missing=3
		3:[2438<8.492250e-01] yes=5,no=6,missing=5
			5:leaf=0.09217260
			6:leaf=-0.05317840
		4:leaf=-0.12375100
booster[8]:
0:[2307<9.707520e-01] yes=1,no=2,missing=1
	1:[2747<2.184250e+00] yes=3,no=4,missing=3
		3:[1484<7.504550e-02] yes=5,no=6,missing=5
			5:leaf=-0.25188000
			6:leaf=0.00052283
		4:[437<6.697100e-01] yes=7,no=8,missing=7
			7:leaf=0.04506400
			8:leaf=-0.10592500
	2:leaf=0.00641476
booster[9]:
0:[3585<1.314600e+00] yes=1,no=2,missing=1
	1:[709<1.290670e+00] yes=3,no=4,missing=3
		3:[1786<5.199300e-02] yes=5,no=6,missing=5
			5:leaf=-0.12206700
			6:leaf=-0.25050800
		4:[2055<2.847590e-01] yes=7,no=8,missing=7
			7:leaf=0.05419380
			8:leaf=-0.08228440
	2:leaf=0.00706904
booster[10]:
0:[690<1.008130e-01] yes=1,no=2,missing=1
	1:[3127<1.315260e+00] yes=9,no=10,missing=9
		9:[1526<2.303300e-02] yes=11,no=12,missing=11
			11:leaf=-0.10655000
			12:leaf=-0.23493400
		10:[312<1.240980e-01] yes=13,no=14,missing=13
			13:leaf=0.05046860
			14:leaf=-0.07882040
	2:[244<7.524290e-01] yes=3,no=4,missing=3
		3:[371<4.568780e-01] yes=7,no=8,missing=7
			7:leaf=-0.00191083
			8:leaf=0.15241000
		4:[1405<3.688140e-01] yes=5,no=6,missing=5
			5:leaf=-0.15749700
			6:leaf=0.02357900
booster[11]:
0:[3402<-1.435390e-01] yes=1,no=2,missing=1
	1:[2165<9.271400e-02] yes=3,no=4,missing=3
		3:[1349<2.589500e-02] yes=5,no=6,missing=5
			5:leaf=-0.10230300
			6:leaf=0.11346100
		4:[837<9.983990e-01] yes=9,no=10,missing=9
			9:leaf=-0.22388800
			10:leaf=-0.00849852
	2:[2399<1.020440e-01] yes=7,no=8,missing=7
		7:leaf=-0.07143900
		8:leaf=0.09654080
booster[12]:
0:[690<3.360450e-02] yes=1,no=2,missing=1
	1:[325<1.889200e-02] yes=7,no=8,missing=7
		7:[1471<9.297500e-03] yes=9,no=10,missing=9
			9:leaf=-0.09784620
			10:leaf=0.05351680
		8:[3841<-7.533600e-02] yes=13,no=14,missing=13
			13:leaf=-0.21514800
			14:leaf=-0.03802320
	2:[244<7.524290e-01] yes=3,no=4,missing=3
		3:[1651<1.038900e-01] yes=11,no=12,missing=11
			11:leaf=0.11393200
			12:leaf=-0.03199260
		4:[2385<5.765010e-01] yes=5,no=6,missing=5
			5:leaf=-0.13493600
			6:leaf=0.04961860
booster[13]:
0:[861<5.698650e-02] yes=1,no=2,missing=1
	1:[2316<1.352800e-02] yes=3,no=4,missing=3
		3:[89<5.000000e-01] yes=11,no=12,missing=11
			11:leaf=-0.01857720
			12:leaf=-0.12732200
		4:[333<7.993100e-02] yes=5,no=6,missing=5
			5:leaf=0.09163460
			6:leaf=-0.07205280
	2:[908<3.266210e-01] yes=7,no=8,missing=7
		7:[1098<4.664100e-02] yes=13,no=14,missing=13
			13:leaf=-0.21465600
			14:leaf=-0.03234760
		8:[2311<1.276880e-01] yes=9,no=10,missing=9
			9:leaf=-0.06246980
			10:leaf=0.06473020
booster[14]:
0:[1534<1.423680e-01] yes=1,no=2,missing=1
	1:[690<3.360450e-02] yes=3,no=4,missing=3
		3:[205<2.725100e-02] yes=7,no=8,missing=7
			7:leaf=-0.12817800
			8:leaf=-0.02275100
		4:[1<9.598870e-01] yes=5,no=6,missing=5
			5:leaf=0.09851960
			6:leaf=-0.05045920
	2:[57<1.239750e+00] yes=9,no=10,missing=9
		9:leaf=-0.18472400
		10:[894<1.951150e-02] yes=11,no=12,missing=11
			11:leaf=0.05304580
			12:leaf=-0.08971660
booster[15]:
0:[375<7.543080e-01] yes=1,no=2,missing=1
	1:[1806<3.987500e-02] yes=3,no=4,missing=3
		3:[2531<9.264000e-02] yes=7,no=8,missing=7
			7:leaf=-0.08114680
			8:leaf=0.06630160
		4:[1964<2.235350e-02] yes=5,no=6,missing=5
			5:leaf=0.15372800
			6:leaf=-0.01810970
	2:[2385<5.765010e-01] yes=9,no=10,missing=9
		9:leaf=-0.17336000
		10:leaf=0.01262360
booster[16]:
0:[1014<3.708500e-02] yes=1,no=2,missing=1
	1:[1317<6.204800e-02] yes=3,no=4,missing=3
		3:[233<5.975230e-01] yes=11,no=12,missing=11
			11:leaf=0.00047982
			12:leaf=-0.09904360
		4:[945<5.339150e-02] yes=9,no=10,missing=9
			9:leaf=0.14806100
			10:leaf=-0.00741616
	2:[2914<-1.732950e-01] yes=5,no=6,missing=5
		5:[1121<3.933530e-01] yes=7,no=8,missing=7
			7:leaf=-0.17442800
			8:leaf=0.01255630
		6:[695<2.198260e-01] yes=13,no=14,missing=13
			13:leaf=0.08319460
			14:leaf=-0.05430920
booster[17]:
0:[325<1.889200e-02] yes=1,no=2,missing=1
	1:[2316<1.352800e-02] yes=3,no=4,missing=3
		3:[2733<9.913470e-01] yes=13,no=14,missing=13
			13:leaf=-0.06445640
			14:leaf=0.03291000
		4:[249<8.098440e-01] yes=9,no=10,missing=9
			9:leaf=0.11283100
			10:leaf=-0.02605660
	2:[3141<4.868070e-01] yes=5,no=6,missing=5
		5:[2334<1.287250e-01] yes=7,no=8,missing=7
			7:leaf=-0.16644300
			8:leaf=0.01313880
		6:[3306<3.243320e-01] yes=11,no=12,missing=11
			11:leaf=0.11963800
			12:leaf=-0.05098740
booster[18]:
0:[1534<1.423680e-01] yes=1,no=2,missing=1
	1:[1121<9.077400e-02] yes=3,no=4,missing=3
		3:[3811<3.632600e-02] yes=7,no=8,missing=7
			7:leaf=0.00009444
			8:leaf=-0.10565700
		4:[244<8.963720e-01] yes=5,no=6,missing=5
			5:leaf=0.12204800
			6:leaf=-0.01740070
	2:[57<1.239750e+00] yes=9,no=10,missing=9
		9:leaf=-0.14784300
		10:[894<1.951150e-02] yes=11,no=12,missing=11
			11:leaf=0.06119480
			12:leaf=-0.07384160
booster[19]:
0:[853<6.903500e-03] yes=1,no=2,missing=1
	1:[988<1.616530e-01] yes=3,no=4,missing=3
		3:[2399<1.020440e-01] yes=5,no=6,missing=5
			5:leaf=-0.05411220
			6:leaf=0.07582680
		4:[2224<9.118050e-02] yes=7,no=8,missing=7
			7:leaf=0.13086200
			8:leaf=-0.01034430
	2:leaf=-0.12128700
booster[20]:
0:[2049<1.267870e-01] yes=1,no=2,missing=1
	1:[1147<8.876700e-02] yes=3,no=4,missing=3
		3:[1839<3.771900e-02] yes=9,no=10,missing=9
			9:leaf=-0.04872840
			10:leaf=0.07914840
		4:[1167<5.678250e-02] yes=11,no=12,missing=11
			11:leaf=0.15277900
			12:leaf=-0.01448570
	2:[690<1.008130e-01] yes=5,no=6,missing=5
		5:[377<1.466940e-01] yes=13,no=14,missing=13
			13:leaf=0.01217770
			14:leaf=-0.15525100
		6:[2185<5.646850e-01] yes=7,no=8,missing=7
			7:leaf=-0.03782420
			8:leaf=0.11030400
booster[21]:
0:[861<5.698650e-02] yes=1,no=2,missing=1
	1:[58<1.297610e-01] yes=3,no=4,missing=3
		3:leaf=-0.10245800
		4:[312<4.851130e-01] yes=5,no=6,missing=5
			5:leaf=0.05345000
			6:leaf=-0.06296480
	2:[908<3.266210e-01] yes=7,no=8,missing=7
		7:[1098<4.664100e-02] yes=9,no=10,missing=9
			9:leaf=-0.15462200
			10:leaf=-0.00540164
		8:[109<9.910330e-01] yes=11,no=12,missing=11
			11:leaf=-0.02597800
			12:leaf=0.08105080
booster[22]:
0:[2<3.688840e-01] yes=1,no=2,missing=1
	1:[58<1.297610e-01] yes=3,no=4,missing=3
		3:leaf=-0.10096200
		4:[142<2.304360e-01] yes=5,no=6,missing=5
			5:leaf=0.06032800
			6:leaf=-0.04023300
	2:[2701<7.723700e-02] yes=7,no=8,missing=7
		7:leaf=-0.12227400
		8:leaf=-0.00086621
booster[23]:
0:[1498<2.847520e-01] yes=1,no=2,missing=1
	1:[2170<3.858450e-01] yes=3,no=4,missing=3
		3:[311<3.213600e-02] yes=5,no=6,missing=5
			5:leaf=-0.03023120
			6:leaf=0.10733400
		4:[817<2.298240e-01] yes=11,no=12,missing=11
			11:leaf=-0.15309400
			12:leaf=-0.00253422
	2:[2049<5.494110e-01] yes=7,no=8,missing=7
		7:[172<7.460860e-01] yes=9,no=10,missing=9
			9:leaf=0.16053000
			10:leaf=-0.00151748
		8:leaf=-0.04330280
booster[24]:
0:[2221<5.283700e-02] yes=1,no=2,missing=1
	1:[371<4.568780e-01] yes=5,no=6,missing=5
		5:[925<2.967600e-02] yes=9,no=10,missing=9
			9:leaf=-0.03846460
			10:leaf=0.07498560
		6:[835<3.744300e-02] yes=7,no=8,missing=7
			7:leaf=0.13447900
			8:leaf=-0.00962454
	2:[908<3.266210e-01] yes=3,no=4,missing=3
		3:[562<1.833800e-01] yes=13,no=14,missing=13
			13:leaf=-0.13957200
			14:leaf=-0.00640670
		4:[45<2.602530e-01] yes=11,no=12,missing=11
			11:leaf=0.10889300
			12:leaf=-0.03399260
booster[25]:
0:[739<1.896360e-01] yes=1,no=2,missing=1
	1:[1129<2.408380e-01] yes=3,no=4,missing=3
		3:[1014<3.708500e-02] yes=5,no=6,missing=5
			5:leaf=0.02466540
			6:leaf=-0.07612100
		4:[2210<7.534000e-03] yes=7,no=8,missing=7
			7:leaf=-0.02302500
			8:leaf=0.13333200
	2:leaf=-0.10179600
booster[26]:
0:[54<1.016480e+00] yes=1,no=2,missing=1
	1:[2251<7.381050e-02] yes=3,no=4,missing=3
		3:[1330<2.564450e-02] yes=9,no=10,missing=9
			9:leaf=0.01355970
			10:leaf=-0.09416120
		4:[2342<8.189350e-02] yes=5,no=6,missing=5
			5:leaf=0.11299300
			6:leaf=-0.02996320
	2:[2946<3.349310e-01] yes=7,no=8,missing=7
		7:[1462<4.144800e-02] yes=11,no=12,missing=11
			11:leaf=-0.13217700
			12:leaf=0.01819340
		8:leaf=0.04697680
booster[27]:
0:[2055<2.847590e-01] yes=1,no=2,missing=1
	1:[2579<1.068630e-01] yes=3,no=4,missing=3
		3:[2161<3.207940e-01] yes=7,no=8,missing=7
			7:leaf=-0.02773460
			8:leaf=0.09723000
		4:[142<2.321950e-01] yes=5,no=6,missing=5
			5:leaf=0.14868400
			6:leaf=-0.01295450
	2:leaf=-0.09398540
booster[28]:
0:[348<4.077910e-01] yes=1,no=2,missing=1
	1:[371<4.568780e-01] yes=3,no=4,missing=3
		3:[1359<3.988300e-02] yes=11,no=12,missing=11
			11:leaf=-0.03139200
			12:leaf=0.05666320
		4:[250<9.554890e-01] yes=7,no=8,missing=7
			7:leaf=0.14735400
			8:leaf=-0.02866680
	2:[400<1.133400e+00] yes=5,no=6,missing=5
		5:[988<1.616530e-01] yes=9,no=10,missing=9
			9:leaf=-0.13026000
			10:leaf=0.01792890
		6:[1279<2.612820e-01] yes=13,no=14,missing=13
			13:leaf=0.11281200
			14:leaf=-0.02273340
booster[29]:
0:[853<6.903500e-03] yes=1,no=2,missing=1
	1:[1806<3.987500e-02] yes=3,no=4,missing=3
		3:[292<2.157200e-02] yes=7,no=8,missing=7
			7:leaf=-0.03163120
			8:leaf=0.08420200
		4:[1213<1.634800e-01] yes=5,no=6,missing=5
			5:leaf=0.13013100
			6:leaf=-0.01448240
	2:leaf=-0.09124480
booster[30]:
0:[1192<6.795000e-02] yes=1,no=2,missing=1
	1:[925<2.967600e-02] yes=5,no=6,missing=5
		5:[445<6.698170e-01] yes=7,no=8,missing=7
			7:leaf=0.02712280
			8:leaf=-0.07977880
		6:[2175<5.796800e-02] yes=9,no=10,missing=9
			9:leaf=0.14324100
			10:leaf=-0.00556582
	2:[1846<8.219000e-01] yes=3,no=4,missing=3
		3:[167<9.504670e-01] yes=11,no=12,missing=11
			11:leaf=-0.13395800
			12:leaf=0.00157290
		4:[2555<1.102660e-01] yes=13,no=14,missing=13
			13:leaf=0.09749840
			14:leaf=-0.02159480
booster[31]:
0:[1766<4.308400e-02] yes=1,no=2,missing=1
	1:[1911<1.707500e-03] yes=3,no=4,missing=3
		3:[254<8.744900e-01] yes=9,no=10,missing=9
			9:leaf=0.02346000
			10:leaf=-0.09487480
		4:[150<5.425370e-01] yes=5,no=6,missing=5
			5:leaf=0.10426900
			6:leaf=-0.04291040
	2:[566<2.884960e-01] yes=7,no=8,missing=7
		7:[2050<4.188090e-01] yes=11,no=12,missing=11
			11:leaf=-0.12906700
			12:leaf=0.00988066
		8:[2233<1.871840e-01] yes=13,no=14,missing=13
			13:leaf=0.09589200
			14:leaf=-0.02621580
booster[32]:
0:[1534<1.423680e-01] yes=1,no=2,missing=1
	1:[2579<1.068630e-01] yes=3,no=4,missing=3
		3:[1188<7.069150e-02] yes=5,no=6,missing=5
			5:leaf=0.02056060
			6:leaf=-0.09216700
		4:[1398<5.141300e-01] yes=7,no=8,missing=7
			7:leaf=0.12508100
			8:leaf=-0.03021940
	2:[1582<2.458950e-01] yes=9,no=10,missing=9
		9:leaf=-0.11062100
		10:leaf=0.02042580
booster[33]:
0:[1498<2.847520e-01] yes=1,no=2,missing=1
	1:[835<3.744300e-02] yes=3,no=4,missing=3
		3:[1499<5.632200e-01] yes=5,no=6,missing=5
			5:leaf=-0.00851820
			6:leaf=0.13161200
		4:[1875<1.430630e-01] yes=7,no=8,missing=7
			7:leaf=-0.14136400
			8:leaf=0.03371860
	2:[2482<1.727660e-01] yes=9,no=10,missing=9
		9:[1890<6.283190e-01] yes=11,no=12,missing=11
			11:leaf=0.12772200
			12:leaf=-0.00941236
		10:leaf=-0.05037820
booster[34]:
0:[58<1.297610e-01] yes=1,no=2,missing=1
	1:leaf=-0.08443120
	2:[1<9.598870e-01] yes=3,no=4,missing=3
		3:[230<3.780220e-01] yes=5,no=6,missing=5
			5:leaf=0.05347040
			6:leaf=-0.04444520
		4:[1699<1.124460e-01] yes=7,no=8,missing=7
			7:leaf=-0.10812900
			8:leaf=0.02123120
booster[35]:
0:[290<4.829790e-01] yes=1,no=2,missing=1
	1:[1147<8.876700e-02] yes=3,no=4,missing=3
		3:[1099<6.005800e-02] yes=7,no=8,missing=7
			7:leaf=0.00535236
			8:leaf=-0.09084780
		4:[894<1.951150e-02] yes=5,no=6,missing=5
			5:leaf=0.10423200
			6:leaf=-0.01019400
	2:leaf=-0.08560620
booster[36]:
0:[2161<3.207940e-01] yes=1,no=2,missing=1
	1:[1014<3.708500e-02] yes=3,no=4,missing=3
		3:[246<5.476120e-01] yes=5,no=6,missing=5
			5:leaf=-0.01972020
			6:leaf=0.09307420
		4:[2525<3.789670e-01] yes=7,no=8,missing=7
			7:leaf=-0.11288300
			8:leaf=0.04929180
	2:[684<4.257860e-01] yes=9,no=10,missing=9
		9:[2043<6.849600e-02] yes=11,no=12,missing=11
			11:leaf=0.00418866
			12:leaf=0.13533800
		10:leaf=-0.03485900
booster[37]:
0:[690<3.360450e-02] yes=1,no=2,missing=1
	1:[3882<1.364720e+00] yes=3,no=4,missing=3
		3:[734<1.218830e-01] yes=5,no=6,missing=5
			5:leaf=0.03391200
			6:leaf=-0.09035980
		4:leaf=-0.11629500
	2:[2727<2.540620e-01] yes=7,no=8,missing=7
		7:[2210<7.534000e-03] yes=9,no=10,missing=9
			9:leaf=-0.01327310
			10:leaf=0.10911400
		8:leaf=-0.06793620
booster[38]:
0:[2555<1.102660e-01] yes=1,no=2,missing=1
	1:[1745<6.098000e-02] yes=3,no=4,missing=3
		3:[2273<3.559250e-02] yes=5,no=6,missing=5
			5:leaf=0.01533650
			6:leaf=-0.07607440
		4:[296<3.363220e-01] yes=7,no=8,missing=7
			7:leaf=0.10709700
			8:leaf=-0.02409120
	2:[995<1.620210e-01] yes=9,no=10,missing=9
		9:leaf=-0.09765720
		10:leaf=-0.00055220
booster[39]:
0:[739<1.896360e-01] yes=1,no=2,missing=1
	1:[562<1.833800e-01] yes=3,no=4,missing=3
		3:[410<8.699020e-01] yes=5,no=6,missing=5
			5:leaf=0.01715810
			6:leaf=-0.07485720
		4:[1938<8.692350e-02] yes=7,no=8,missing=7
			7:leaf=0.11762200
			8:leaf=-0.03170020
	2:leaf=-0.08135620
booster[40]:
0:[793<2.360750e-01] yes=1,no=2,missing=1
	1:[1150<7.444350e-02] yes=7,no=8,missing=7
		7:[311<3.213600e-02] yes=9,no=10,missing=9
			9:leaf=-0.02903420
			10:leaf=0.08082660
		8:leaf=-0.11244200
	2:[1194<3.710400e-02] yes=3,no=4,missing=3
		3:[179<1.001180e+00] yes=5,no=6,missing=5
			5:leaf=0.14046700
			6:leaf=-0.01830260
		4:[837<9.983990e-01] yes=11,no=12,missing=11
			11:leaf=-0.08624700
			12:leaf=0.03625700
booster[41]:
0:[2401<3.712400e-02] yes=1,no=2,missing=1
	1:[1317<6.204800e-02] yes=3,no=4,missing=3
		3:[1776<1.832700e-02] yes=5,no=6,missing=5
			5:leaf=0.01420140
			6:leaf=-0.10376300
		4:[2484<2.425550e-01] yes=7,no=8,missing=7
			7:leaf=0.09670460
			8:leaf=-0.02443820
	2:[2215<3.703130e-01] yes=9,no=10,missing=9
		9:leaf=-0.09975320
		10:leaf=0.02637980
booster[42]:
0:[3287<-9.454650e-02] yes=1,no=2,missing=1
	1:[82<5.000000e-01] yes=7,no=8,missing=7
		7:[1499<5.632200e-01] yes=9,no=10,missing=9
			9:leaf=-0.09188680
			10:leaf=0.04898100
		8:[925<2.967600e-02] yes=11,no=12,missing=11
			11:leaf=-0.01266820
			12:leaf=0.09544860
	2:[1933<2.342580e-01] yes=3,no=4,missing=3
		3:[3236<1.905820e+00] yes=5,no=6,missing=5
			5:leaf=0.12458300
			6:leaf=-0.02580520
		4:leaf=-0.06504080
booster[43]:
0:[1056<6.911450e-02] yes=1,no=2,missing=1
	1:[2316<1.352800e-02] yes=5,no=6,missing=5
		5:[306<4.544600e-02] yes=9,no=10,missing=9
			9:leaf=0.01282220
			10:leaf=-0.10411100
		6:[1239<3.129300e-02] yes=7,no=8,missing=7
			7:leaf=0.10568500
			8:leaf=-0.01978220
	2:[1761<1.696490e-01] yes=3,no=4,missing=3
		3:leaf=-0.11451400
		4:[1270<2.029620e-01] yes=11,no=12,missing=11
			11:leaf=0.07439020
			12:leaf=-0.04663100
booster[44]:
0:[58<1.297610e-01] yes=1,no=2,missing=1
	1:leaf=-0.07791580
	2:[1941<2.584210e-01] yes=3,no=4,missing=3
		3:[1147<8.876700e-02] yes=5,no=6,missing=5
			5:leaf=-0.00048227
			6:leaf=0.08273920
		4:[1747<2.001390e-01] yes=7,no=8,missing=7
			7:leaf=-0.09731980
			8:leaf=0.03317860
booster[45]:
0:[2221<5.283700e-02] yes=1,no=2,missing=1
	1:[1911<1.707500e-03] yes=5,no=6,missing=5
		5:[254<8.744900e-01] yes=9,no=10,missing=9
			9:leaf=0.01657680
			10:leaf=-0.08710100
		6:[2186<1.199380e-01] yes=7,no=8,missing=7
			7:leaf=0.09594680
			8:leaf=-0.02145740
	2:[718<5.543100e-01] yes=3,no=4,missing=3
		3:[1499<5.632200e-01] yes=11,no=12,missing=11
			11:leaf=-0.11750600
			12:leaf=0.01736290
		4:leaf=0.05182260
booster[46]:
0:[2579<1.068630e-01] yes=1,no=2,missing=1
	1:[2175<5.796800e-02] yes=3,no=4,missing=3
		3:[1690<3.893750e-02] yes=5,no=6,missing=5
			5:leaf=-0.01387200
			6:leaf=0.08116760
		4:[1067<6.719850e-02] yes=11,no=12,missing=11
			11:leaf=-0.12072900
			12:leaf=-0.00597544
	2:[2144<5.273750e-02] yes=7,no=8,missing=7
		7:[328<1.963150e-02] yes=9,no=10,missing=9
			9:leaf=0.00930234
			10:leaf=0.13064900
		8:[1722<1.460340e-01] yes=13,no=14,missing=13
			13:leaf=0.01420790
			14:leaf=-0.05490680
booster[47]:
0:[333<7.993100e-02] yes=1,no=2,missing=1
	1:[2038<1.085400e-02] yes=5,no=6,missing=5
		5:[229<5.000000e-01] yes=9,no=10,missing=9
			9:leaf=0.01815250
			10:leaf=-0.08297520
		6:[945<5.339150e-02] yes=7,no=8,missing=7
			7:leaf=0.08342520
			8:leaf=-0.02536580
	2:[1115<5.148550e-02] yes=3,no=4,missing=3
		3:[2237<1.639470e-01] yes=13,no=14,missing=13
			13:leaf=-0.13599200
			14:leaf=-0.00041113
		4:[1577<1.950240e-01] yes=11,no=12,missing=11
			11:leaf=0.06718920
			12:leaf=-0.03541300
booster[48]:
0:[1498<2.847520e-01] yes=1,no=2,missing=1
	1:[2170<3.858450e-01] yes=3,no=4,missing=3
		3:[784<5.074150e-02] yes=5,no=6,missing=5
			5:leaf=-0.01693080
			6:leaf=0.08423320
		4:[420<8.126740e-01] yes=9,no=10,missing=9
			9:leaf=-0.11998900
			10:leaf=0.00649760
	2:[2130<1.649990e-01] yes=7,no=8,missing=7
		7:[2173<6.334250e-02] yes=11,no=12,missing=11
			11:leaf=0.11194600
			12:leaf=0.00439662
		8:leaf=-0.03533240
booster[49]:
0:[634<1.989650e-01] yes=1,no=2,missing=1
	1:[1786<5.199300e-02] yes=3,no=4,missing=3
		3:[1359<3.988300e-02] yes=5,no=6,missing=5
			5:leaf=-0.01212440
			6:leaf=0.11137500
		4:[3181<8.731370e-01] yes=7,no=8,missing=7
			7:leaf=-0.09937540
			8:leaf=0.05271440
	2:[908<3.266210e-01] yes=9,no=10,missing=9
		9:leaf=-0.00904244
		10:leaf=0.10272300
booster[50]:
0:[793<2.360750e-01] yes=1,no=2,missing=1
	1:[1768<7.812200e-02] yes=5,no=6,missing=5
		5:[1690<3.893750e-02] yes=9,no=10,missing=9
			9:leaf=-0.00804792
			10:leaf=0.09229260
		6:[2023<6.590050e-02] yes=7,no=8,missing=7
			7:leaf=-0.11020800
			8:leaf=0.02807440
	2:[961<5.151450e-02] yes=3,no=4,missing=3
		3:[150<5.425370e-01] yes=11,no=12,missing=11
			11:leaf=0.12367100
			12:leaf=-0.00657980
		4:[517<2.922000e-01] yes=13,no=14,missing=13
			13:leaf=-0.07773620
			14:leaf=0.03594120
booster[51]:
0:[2669<7.823700e-02] yes=1,no=2,missing=1
	1:[311<3.213600e-02] yes=3,no=4,missing=3
		3:[57<1.239750e+00] yes=5,no=6,missing=5
			5:leaf=-0.03132520
			6:leaf=0.08472480
		4:[851<1.179870e-01] yes=7,no=8,missing=7
			7:leaf=0.09487060
			8:leaf=-0.02751660
	2:[929<5.412020e-01] yes=9,no=10,missing=9
		9:leaf=-0.10163300
		10:leaf=0.03276420
booster[52]:
0:[861<5.698650e-02] yes=1,no=2,missing=1
	1:[246<5.476120e-01] yes=5,no=6,missing=5
		5:[1377<3.653150e-02] yes=9,no=10,missing=9
			9:leaf=0.01922580
			10:leaf=-0.06509700
		6:[437<7.012260e-01] yes=7,no=8,missing=7
			7:leaf=0.11770000
			8:leaf=-0.00379692
	2:[1695<3.917800e-01] yes=3,no=4,missing=3
		3:[2187<1.482940e-01] yes=13,no=14,missing=13
			13:leaf=-0.12069000
			14:leaf=-0.00943114
		4:[1602<7.137050e-02] yes=11,no=12,missing=11
			11:leaf=0.07399320
			12:leaf=-0.01842160
booster[53]:
0:[648<1.073690e-01] yes=1,no=2,missing=1
	1:[425<8.204730e-01] yes=5,no=6,missing=5
		5:[1329<3.069050e-02] yes=7,no=8,missing=7
			7:leaf=0.00060817
			8:leaf=0.08159380
		6:leaf=-0.06650960
	2:[1564<4.226050e-02] yes=3,no=4,missing=3
		3:leaf=-0.11812800
		4:[713<1.858500e-02] yes=9,no=10,missing=9
			9:leaf=0.08329320
			10:leaf=-0.02949480
booster[54]:
0:[988<1.616530e-01] yes=1,no=2,missing=1
	1:[244<7.524290e-01] yes=3,no=4,missing=3
		3:[2701<7.723700e-02] yes=5,no=6,missing=5
			5:leaf=-0.00672642
			6:leaf=0.08720280
		4:[407<1.002910e+00] yes=7,no=8,missing=7
			7:leaf=-0.11341900
			8:leaf=0.02858640
	2:[2224<9.118050e-02] yes=9,no=10,missing=9
		9:[371<5.851240e-01] yes=11,no=12,missing=11
			11:leaf=0.00876036
			12:leaf=0.12831200
		10:leaf=-0.02956960
booster[55]:
0:[853<6.903500e-03] yes=1,no=2,missing=1
	1:[1808<1.830330e-01] yes=3,no=4,missing=3
		3:[2128<2.920050e-02] yes=5,no=6,missing=5
			5:leaf=0.01936670
			6:leaf=-0.05925380
		4:[1634<1.027840e-01] yes=7,no=8,missing=7
			7:leaf=0.11476000
			8:leaf=-0.00908506
	2:leaf=-0.06579440
booster[56]:
0:[58<1.297610e-01] yes=1,no=2,missing=1
	1:leaf=-0.06824460
	2:[1<9.598870e-01] yes=3,no=4,missing=3
		3:[1839<3.771900e-02] yes=5,no=6,missing=5
			5:leaf=0.00453988
			6:leaf=0.07550140
		4:[1699<1.124460e-01] yes=7,no=8,missing=7
			7:leaf=-0.08886620
			8:leaf=0.02291940
booster[57]:
0:[1656<3.006760e-01] yes=1,no=2,missing=1
	1:[2536<4.970650e-02] yes=3,no=4,missing=3
		3:[1213<1.634800e-01] yes=5,no=6,missing=5
			5:leaf=0.01230420
			6:leaf=-0.07814620
		4:[2491<2.209390e-01] yes=7,no=8,missing=7
			7:leaf=0.10264900
			8:leaf=-0.01662700
	2:leaf=-0.06427780
booster[58]:
0:[1805<3.371620e-01] yes=1,no=2,missing=1
	1:[1251<8.914400e-02] yes=3,no=4,missing=3
		3:[666<1.303920e-01] yes=7,no=8,missing=7
			7:leaf=-0.01150850
			8:leaf=0.07585880
		4:[552<6.274950e-01] yes=5,no=6,missing=5
			5:leaf=-0.10417000
			6:leaf=0.03842500
	2:[1620<1.687340e-01] yes=9,no=10,missing=9
		9:leaf=0.10378600
		10:leaf=-0.02418520
booster[59]:
0:[230<8.265230e-01] yes=1,no=2,missing=1
	1:[1208<1.496500e-02] yes=3,no=4,missing=3
		3:[2165<1.854300e-02] yes=5,no=6,missing=5
			5:leaf=0.02656540
			6:leaf=-0.06423420
		4:[2452<4.128970e-01] yes=7,no=8,missing=7
			7:leaf=0.08179160
			8:leaf=-0.02809860
	2:leaf=-0.06475780
booster[60]:
0:[988<1.616530e-01] yes=1,no=2,missing=1
	1:[594<2.678600e-02] yes=3,no=4,missing=3
		3:[2600<3.653300e-02] yes=7,no=8,missing=7
			7:leaf=-0.00595666
			8:leaf=0.09490240
		4:[2399<1.020440e-01] yes=5,no=6,missing=5
			5:leaf=-0.10424600
			6:leaf=0.02348120
	2:[2327<4.753450e-02] yes=9,no=10,missing=9
		9:leaf=-0.02890020
		10:[2570<2.169710e-01] yes=11,no=12,missing=11
			11:leaf=0.11731400
			12:leaf=-0.01633940
booster[61]:
0:[894<9.755750e-02] yes=1,no=2,missing=1
	1:[793<2.360750e-01] yes=3,no=4,missing=3
		3:[1705<6.630500e-02] yes=7,no=8,missing=7
			7:leaf=0.01282600
			8:leaf=-0.06178320
		4:[1194<3.710400e-02] yes=5,no=6,missing=5
			5:leaf=0.09303440
			6:leaf=-0.01873020
	2:leaf=-0.06579020
booster[62]:
0:[2579<1.068630e-01] yes=1,no=2,missing=1
	1:[325<1.889200e-02] yes=3,no=4,missing=3
		3:[2891<1.321170e+00] yes=7,no=8,missing=7
			7:leaf=0.02938860
			8:leaf=-0.06477120
		4:[1559<2.950240e-01] yes=5,no=6,missing=5
			5:leaf=-0.10470200
			6:leaf=0.02568360
	2:[1398<6.283810e-01] yes=9,no=10,missing=9
		9:[328<1.963150e-02] yes=11,no=12,missing=11
			11:leaf=-0.00153441
			12:leaf=0.10570800
		10:leaf=-0.05052860
booster[63]:
0:[2210<7.534000e-03] yes=1,no=2,missing=1
	1:[342<1.419740e-01] yes=3,no=4,missing=3
		3:[248<2.876350e-01] yes=7,no=8,missing=7
			7:leaf=-0.01532960
			8:leaf=0.07174040
		4:[925<2.967600e-02] yes=13,no=14,missing=13
			13:leaf=-0.10670100
			14:leaf=-0.00814606
	2:[1006<1.379600e-01] yes=5,no=6,missing=5
		5:[2316<1.352800e-02] yes=9,no=10,missing=9
			9:leaf=-0.02715480
			10:leaf=0.07622220
		6:[432<1.124500e+00] yes=11,no=12,missing=11
			11:leaf=-0.07818980
			12:leaf=0.01093190
booster[64]:
0:[1192<6.795000e-02] yes=1,no=2,missing=1
	1:[1726<2.953650e-02] yes=3,no=4,missing=3
		3:[1776<1.832700e-02] yes=9,no=10,missing=9
			9:leaf=0.00565640
			10:leaf=-0.08308300
		4:[1445<1.184850e-02] yes=5,no=6,missing=5
			5:leaf=0.09620800
			6:leaf=-0.03207100
	2:[1179<1.064690e-01] yes=7,no=8,missing=7
		7:[410<6.344390e-01] yes=13,no=14,missing=13
			13:leaf=0.00261456
			14:leaf=-0.10554900
		8:[1532<1.074930e-01] yes=11,no=12,missing=11
			11:leaf=0.06511140
			12:leaf=-0.02664220
booster[65]:
0:[401<1.142910e+00] yes=1,no=2,missing=1
	1:[348<4.077910e-01] yes=3,no=4,missing=3
		3:[371<4.568780e-01] yes=5,no=6,missing=5
			5:leaf=-0.01020090
			6:leaf=0.07933360
		4:[939<3.230130e-01] yes=7,no=8,missing=7
			7:leaf=-0.09409520
			8:leaf=0.02902060
	2:[1279<2.612820e-01] yes=9,no=10,missing=9
		9:leaf=0.08099700
		10:leaf=-0.00580412
booster[66]:
0:[58<1.297610e-01] yes=1,no=2,missing=1
	1:leaf=-0.06388500
	2:[1524<2.796280e-01] yes=3,no=4,missing=3
		3:[1176<3.083500e-02] yes=5,no=6,missing=5
			5:leaf=-0.00304400
			6:leaf=0.07492320
		4:[690<3.360450e-02] yes=7,no=8,missing=7
			7:leaf=-0.08508900
			8:leaf=0.02146920
booster[67]:
0:[929<1.033200e+00] yes=1,no=2,missing=1
	1:[2173<6.334250e-02] yes=3,no=4,missing=3
		3:[706<9.180550e-02] yes=5,no=6,missing=5
			5:leaf=-0.00836974
			6:leaf=0.05918620
		4:[553<6.348650e-02] yes=7,no=8,missing=7
			7:leaf=-0.10906700
			8:leaf=0.00274522
	2:leaf=0.06570200
booster[68]:
0:[333<7.993100e-02] yes=1,no=2,missing=1
	1:[1839<3.771900e-02] yes=7,no=8,missing=7
		7:[945<5.339150e-02] yes=9,no=10,missing=9
			9:leaf=0.01352280
			10:leaf=-0.06525300
		8:[403<5.468640e-01] yes=11,no=12,missing=11
			11:leaf=0.09679760
			12:leaf=-0.01006470
	2:[1695<3.917800e-01] yes=3,no=4,missing=3
		3:[1053<1.751390e-01] yes=5,no=6,missing=5
			5:leaf=-0.11100500
			6:leaf=0.02437860
		4:[961<5.151450e-02] yes=13,no=14,missing=13
			13:leaf=0.07468020
			14:leaf=-0.02396340
booster[69]:
0:[165<9.337400e-01] yes=1,no=2,missing=1
	1:[204<1.474300e-02] yes=3,no=4,missing=3
		3:[2600<3.653300e-02] yes=9,no=10,missing=9
			9:leaf=-0.01051860
			10:leaf=0.05762780
		4:[212<2.303030e-01] yes=11,no=12,missing=11
			11:leaf=-0.09765180
			12:leaf=0.02332060
	2:[429<1.268300e+00] yes=5,no=6,missing=5
		5:[642<2.969300e-02] yes=7,no=8,missing=7
			7:leaf=0.10493400
			8:leaf=-0.02419960
		6:leaf=-0.05092980
booster[70]:
0:[2066<2.945550e-02] yes=1,no=2,missing=1
	1:[2536<4.970650e-02] yes=3,no=4,missing=3
		3:[1279<4.513050e-01] yes=5,no=6,missing=5
			5:leaf=-0.02073560
			6:leaf=0.07454880
		4:[2564<2.850050e-02] yes=7,no=8,missing=7
			7:leaf=0.09606920
			8:leaf=-0.02049420
	2:[2274<2.952270e-01] yes=9,no=10,missing=9
		9:leaf=-0.08700920
		10:leaf=0.00828862
booster[71]:
0:[1557<1.792490e-01] yes=1,no=2,missing=1
	1:[246<5.476120e-01] yes=3,no=4,missing=3
		3:[1377<3.653150e-02] yes=5,no=6,missing=5
			5:leaf=0.01812030
			6:leaf=-0.07721760
		4:[383<8.150780e-01] yes=7,no=8,missing=7
			7:leaf=0.09553700
			8:leaf=-0.00129211
	2:[1599<2.793680e-01] yes=9,no=10,missing=9
		9:[1023<2.264550e-02] yes=11,no=12,missing=11
			11:leaf=-0.10992100
			12:leaf=0.00673810
		10:leaf=0.03723360
booster[72]:
0:[1770<5.277850e-02] yes=1,no=2,missing=1
	1:[1371<3.164650e-02] yes=3,no=4,missing=3
		3:[81<5.000000e-01] yes=5,no=6,missing=5
			5:leaf=0.02237320
			6:leaf=-0.06202880
		4:[1615<2.455750e-02] yes=9,no=10,missing=9
			9:leaf=-0.02986660
			10:leaf=0.07386260
	2:[2464<2.519760e-01] yes=7,no=8,missing=7
		7:leaf=-0.09126320
		8:leaf=0.02788860
booster[73]:
0:[1766<4.308400e-02] yes=1,no=2,missing=1
	1:[1279<4.513050e-01] yes=3,no=4,missing=3
		3:[1146<3.296400e-02] yes=5,no=6,missing=5
			5:leaf=0.02842380
			6:leaf=-0.04691240
		4:[2268<5.481600e-02] yes=9,no=10,missing=9
			9:leaf=0.10875100
			10:leaf=-0.00610060
	2:[2411<4.824880e-01] yes=7,no=8,missing=7
		7:[1064<1.984670e-01] yes=11,no=12,missing=11
			11:leaf=-0.09278780
			12:leaf=0.01032960
		8:leaf=0.03661060
booster[74]:
0:[648<1.073690e-01] yes=1,no=2,missing=1
	1:[306<3.332700e-02] yes=3,no=4,missing=3
		3:[1146<4.065550e-01] yes=7,no=8,missing=7
			7:leaf=-0.04382740
			8:leaf=0.06178660
		4:[2020<1.814910e-01] yes=5,no=6,missing=5
			5:leaf=0.06212400
			6:leaf=-0.04908380
	2:[1564<4.226050e-02] yes=9,no=10,missing=9
		9:leaf=-0.09766680
		10:[713<1.858500e-02] yes=11,no=12,missing=11
			11:leaf=0.05612760
			12:leaf=-0.02794560
booster[75]:
0:[467<1.747900e-02] yes=1,no=2,missing=1
	1:[1701<3.477400e-02] yes=5,no=6,missing=5
		5:[1415<3.993300e-02] yes=7,no=8,missing=7
			7:leaf=-0.00830716
			8:leaf=0.06482420
		6:[1269<4.114900e-02] yes=9,no=10,missing=9
			9:leaf=-0.07723740
			10:leaf=0.02403100
	2:[2155<2.367180e-01] yes=3,no=4,missing=3
		3:[993<4.462600e-02] yes=11,no=12,missing=11
			11:leaf=-0.10009100
			12:leaf=-0.00263054
		4:leaf=0.03485100
booster[76]:
0:[1056<6.911450e-02] yes=1,no=2,missing=1
	1:[1916<9.977850e-02] yes=5,no=6,missing=5
		5:[229<5.000000e-01] yes=9,no=10,missing=9
			9:leaf=0.02399700
			10:leaf=-0.05541720
		6:[1072<9.540000e-03] yes=7,no=8,missing=7
			7:leaf=0.07840100
			8:leaf=-0.01217940
	2:[405<9.216640e-01] yes=3,no=4,missing=3
		3:[2113<1.050900e-01] yes=13,no=14,missing=13
			13:leaf=-0.10651600
			14:leaf=-0.01008680
		4:[1046<4.507800e-02] yes=11,no=12,missing=11
			11:leaf=0.07145300
			12:leaf=-0.02698620
booster[77]:
0:[2168<1.039160e-01] yes=1,no=2,missing=1
	1:[923<9.306000e-03] yes=3,no=4,missing=3
		3:[342<1.419740e-01] yes=9,no=10,missing=9
			9:leaf=0.01261490
			10:leaf=-0.07416040
		4:[1190<1.614020e-01] yes=11,no=12,missing=11
			11:leaf=0.07959500
			12:leaf=-0.02792020
	2:[704<5.304160e-01] yes=5,no=6,missing=5
		5:[2165<1.854300e-02] yes=7,no=8,missing=7
			7:leaf=0.03677680
			8:leaf=-0.09050140
		6:leaf=0.04237680
booster[78]:
0:[3227<6.110690e-01] yes=1,no=2,missing=1
	1:[189<-9.000000e-03] yes=5,no=6,missing=5
		5:[371<5.851240e-01] yes=9,no=10,missing=9
			9:leaf=-0.08471780
			10:leaf=0.02176000
		6:[403<5.468640e-01] yes=7,no=8,missing=7
			7:leaf=0.04160240
			8:leaf=-0.03446220
	2:[546<1.342870e-01] yes=3,no=4,missing=3
		3:leaf=-0.08501280
		4:[6<4.822310e-01] yes=11,no=12,missing=11
			11:leaf=0.05523420
			12:leaf=-0.01999290
booster[79]:
0:[1699<1.124460e-01] yes=1,no=2,missing=1
	1:[1158<4.245400e-02] yes=3,no=4,missing=3
		3:[2038<1.085400e-02] yes=7,no=8,missing=7
			7:leaf=-0.02194060
			8:leaf=0.05062000
		4:[1695<2.350680e-01] yes=5,no=6,missing=5
			5:leaf=-0.09501400
			6:leaf=0.03349760
	2:[1728<3.006770e-01] yes=9,no=10,missing=9
		9:[2331<2.172270e-01] yes=11,no=12,missing=11
			11:leaf=0.09201900
			12:leaf=-0.01260600
		10:leaf=-0.04018560
booster[80]:
0:[634<1.989650e-01] yes=1,no=2,missing=1
	1:[861<5.698650e-02] yes=3,no=4,missing=3
		3:[2600<3.653300e-02] yes=5,no=6,missing=5
			5:leaf=-0.01169560
			6:leaf=0.05823040
		4:[1339<2.513090e-01] yes=7,no=8,missing=7
			7:leaf=-0.10243800
			8:leaf=0.00776350
	2:[1279<2.612820e-01] yes=9,no=10,missing=9
		9:leaf=0.07597100
		10:leaf=-0.00573766
booster[81]:
0:[1781<3.687640e-01] yes=1,no=2,missing=1
	1:[1988<7.638550e-02] yes=3,no=4,missing=3
		3:[858<1.937910e-01] yes=5,no=6,missing=5
			5:leaf=-0.00708382
			6:leaf=0.06413420
		4:[338<1.839180e-01] yes=7,no=8,missing=7
			7:leaf=-0.09274340
			8:leaf=0.00834122
	2:leaf=0.05599480
booster[82]:
0:[54<1.016480e+00] yes=1,no=2,missing=1
	1:[445<6.698170e-01] yes=3,no=4,missing=3
		3:[58<4.021990e-01] yes=5,no=6,missing=5
			5:leaf=-0.01990470
			6:leaf=0.05343120
		4:[1118<9.938550e-02] yes=11,no=12,missing=11
			11:leaf=-0.07024140
			12:leaf=0.02124400
	2:[74<5.000000e-01] yes=7,no=8,missing=7
		7:[2168<1.039160e-01] yes=9,no=10,missing=9
			9:leaf=0.06146160
			10:leaf=-0.02990620
		8:leaf=-0.08473980
booster[83]:
0:[254<8.744900e-01] yes=1,no=2,missing=1
	1:[1014<3.708500e-02] yes=7,no=8,missing=7
		7:[1916<9.977850e-02] yes=9,no=10,missing=9
			9:leaf=-0.00053877
			10:leaf=0.08580360
		8:[1599<2.793680e-01] yes=11,no=12,missing=11
			11:leaf=-0.07377940
			12:leaf=0.05048080
	2:[529<1.111680e-01] yes=3,no=4,missing=3
		3:[444<9.782480e-01] yes=5,no=6,missing=5
			5:leaf=-0.08828500
			6:leaf=0.03365440
		4:[714<2.360850e-02] yes=13,no=14,missing=13
			13:leaf=0.08833960
			14:leaf=-0.02815720
booster[84]:
0:[1132<3.006300e-02] yes=1,no=2,missing=1
	1:[1176<3.083500e-02] yes=5,no=6,missing=5
		5:[700<7.830000e-03] yes=7,no=8,missing=7
			7:leaf=0.02302280
			8:leaf=-0.06386720
		6:[3585<4.623500e-03] yes=9,no=10,missing=9
			9:leaf=0.09324720
			10:leaf=-0.01664460
	2:[2050<4.188090e-01] yes=3,no=4,missing=3
		3:[1775<1.584750e-01] yes=11,no=12,missing=11
			11:leaf=-0.09494120
			12:leaf=0.01226910
		4:[1949<1.588650e-02] yes=13,no=14,missing=13
			13:leaf=0.06633500
			14:leaf=-0.02670940
booster[85]:
0:[739<1.896360e-01] yes=1,no=2,missing=1
	1:[1129<2.408380e-01] yes=3,no=4,missing=3
		3:[2690<3.808200e-02] yes=5,no=6,missing=5
			5:leaf=0.00980784
			6:leaf=-0.07522660
		4:[2345<2.363950e-02] yes=7,no=8,missing=7
			7:leaf=-0.01474270
			8:leaf=0.09179460
	2:leaf=-0.05833260
booster[86]:
0:[833<2.728350e-02] yes=1,no=2,missing=1
	1:[2536<4.970650e-02] yes=5,no=6,missing=5
		5:[945<5.339150e-02] yes=7,no=8,missing=7
			7:leaf=0.01381720
			8:leaf=-0.05880340
		6:[1192<6.795000e-02] yes=9,no=10,missing=9
			9:leaf=0.09319300
			10:leaf=-0.01966500
	2:[1817<4.138480e-01] yes=3,no=4,missing=3
		3:[1810<5.990000e-02] yes=11,no=12,missing=11
			11:leaf=-0.09892120
			12:leaf=0.00119606
		4:leaf=0.03748940
booster[87]:
0:[58<1.297610e-01] yes=1,no=2,missing=1
	1:leaf=-0.05581360
	2:[2331<7.240900e-02] yes=3,no=4,missing=3
		3:[328<1.963150e-02] yes=5,no=6,missing=5
			5:leaf=0.00057626
			6:leaf=0.08450960
		4:[963<8.289550e-02] yes=7,no=8,missing=7
			7:leaf=-0.06530800
			8:leaf=0.02986080
booster[88]:
0:[2555<1.102660e-01] yes=1,no=2,missing=1
	1:[1839<3.771900e-02] yes=3,no=4,missing=3
		3:[2744<8.074850e-02] yes=7,no=8,missing=7
			7:leaf=-0.02604740
			8:leaf=0.04356400
		4:[2401<3.712400e-02] yes=5,no=6,missing=5
			5:leaf=0.07597220
			6:leaf=-0.02400540
	2:[2136<6.169900e-02] yes=9,no=10,missing=9
		9:leaf=-0.07066840
		10:leaf=0.00097157
booster[89]:
0:[753<9.708000e-03] yes=1,no=2,missing=1
	1:[1197<1.952350e-01] yes=5,no=6,missing=5
		5:[2044<1.671950e-02] yes=7,no=8,missing=7
			7:leaf=0.01826490
			8:leaf=-0.07464960
		6:[1936<1.341570e-01] yes=11,no=12,missing=11
			11:leaf=0.00092588
			12:leaf=0.09025620
	2:[382<9.385590e-01] yes=3,no=4,missing=3
		3:[1077<1.135940e-01] yes=9,no=10,missing=9
			9:leaf=-0.08985480
			10:leaf=0.00662794
		4:leaf=0.03450900
booster[90]:
0:[2324<2.919650e-01] yes=1,no=2,missing=1
	1:[3047<1.621460e+00] yes=5,no=6,missing=5
		5:[648<1.073690e-01] yes=7,no=8,missing=7
			7:leaf=0.03402860
			8:leaf=-0.04374180
		6:leaf=-0.05965980
	2:[1712<4.074350e-02] yes=3,no=4,missing=3
		3:leaf=-0.08482840
		4:leaf=0.02457180
booster[91]:
0:[3287<-9.454650e-02] yes=1,no=2,missing=1
	1:[1948<6.169150e-02] yes=5,no=6,missing=5
		5:[1014<3.708500e-02] yes=9,no=10,missing=9
			9:leaf=-0.00584240
			10:leaf=-0.08771480
		6:[1046<4.507800e-02] yes=7,no=8,missing=7
			7:leaf=0.07937200
			8:leaf=-0.02916600
	2:[3409<-7.299750e-02] yes=3,no=4,missing=3
		3:leaf=0.08800400
		4:[2556<4.572800e-02] yes=11,no=12,missing=11
			11:leaf=-0.05201200
			12:leaf=0.03107040
booster[92]:
0:[1656<3.006760e-01] yes=1,no=2,missing=1
	1:[1806<3.987500e-02] yes=3,no=4,missing=3
		3:[2542<2.618850e-02] yes=5,no=6,missing=5
			5:leaf=-0.02753420
			6:leaf=0.06358180
		4:[1275<1.022940e-01] yes=7,no=8,missing=7
			7:leaf=0.07509960
			8:leaf=-0.00918230
	2:leaf=-0.05349260
booster[93]:
0:[26<1.619250e-01] yes=1,no=2,missing=1
	1:[309<7.299800e-02] yes=5,no=6,missing=5
		5:[666<1.303920e-01] yes=9,no=10,missing=9
			9:leaf=-0.02524700
			10:leaf=0.04496540
		6:[742<8.594850e-02] yes=7,no=8,missing=7
			7:leaf=0.07362840
			8:leaf=-0.02279300
	2:[409<1.184290e+00] yes=3,no=4,missing=3
		3:leaf=-0.08094460
		4:leaf=0.02810140
booster[94]:
0:[333<7.993100e-02] yes=1,no=2,missing=1
	1:[2038<1.085400e-02] yes=5,no=6,missing=5
		5:[229<5.000000e-01] yes=9,no=10,missing=9
			9:leaf=0.01389690
			10:leaf=-0.06197380
		6:[2324<2.919650e-01] yes=7,no=8,missing=7
			7:leaf=0.05761740
			8:leaf=-0.03260880
	2:[2185<5.646850e-01] yes=3,no=4,missing=3
		3:[879<9.524250e-01] yes=11,no=12,missing=11
			11:leaf=-0.08063360
			12:leaf=0.00741848
		4:leaf=0.03413400
booster[95]:
0:[892<7.985400e-02] yes=1,no=2,missing=1
	1:[246<5.476120e-01] yes=3,no=4,missing=3
		3:[2144<5.273750e-02] yes=7,no=8,missing=7
			7:leaf=-0.03077860
			8:leaf=0.06407420
		4:[383<7.800200e-01] yes=5,no=6,missing=5
			5:leaf=0.07922380
			6:leaf=-0.01221990
	2:[2133<7.792850e-02] yes=9,no=10,missing=9
		9:leaf=-0.07354420
		10:leaf=0.01527100
booster[96]:
0:[2249<4.609650e-02] yes=1,no=2,missing=1
	1:[306<3.332700e-02] yes=7,no=8,missing=7
		7:[229<5.000000e-01] yes=13,no=14,missing=13
			13:leaf=0.01795400
			14:leaf=-0.04740380
		8:[142<2.304360e-01] yes=9,no=10,missing=9
			9:leaf=0.07417760
			10:leaf=-0.02547900
	2:[977<5.712150e-02] yes=3,no=4,missing=3
		3:[2216<1.189640e-01] yes=5,no=6,missing=5
			5:leaf=-0.09725080
			6:leaf=0.01952560
		4:[642<2.969300e-02] yes=11,no=12,missing=11
			11:leaf=0.06598300
			12:leaf=-0.02540400
booster[97]:
0:[2458<3.066100e-02] yes=1,no=2,missing=1
	1:[228<5.000000e-01] yes=5,no=6,missing=5
		5:[2060<7.600500e-03] yes=7,no=8,missing=7
			7:leaf=0.04702760
			8:leaf=-0.02914480
		6:[340<1.054020e+00] yes=9,no=10,missing=9
			9:leaf=-0.06761780
			10:leaf=0.02169860
	2:[1490<3.032450e-02] yes=3,no=4,missing=3
		3:[16<3.618180e-01] yes=13,no=14,missing=13
			13:leaf=-0.10250000
			14:leaf=0.00091161
		4:[2570<2.169710e-01] yes=11,no=12,missing=11
			11:leaf=0.04990900
			12:leaf=-0.03018800
booster[98]:
0:[38<8.780340e-01] yes=1,no=2,missing=1
	1:[48<1.019210e-01] yes=3,no=4,missing=3
		3:[306<3.332700e-02] yes=9,no=10,missing=9
			9:leaf=-0.02123580
			10:leaf=0.03282700
		4:[3841<-7.533600e-02] yes=7,no=8,missing=7
			7:leaf=-0.08897140
			8:leaf=0.01816090
	2:[425<1.023060e+00] yes=5,no=6,missing=5
		5:[120<4.686120e-01] yes=11,no=12,missing=11
			11:leaf=-0.00532410
			12:leaf=0.10280400
		6:leaf=-0.03667620
booster[99]:
0:[940<8.065500e-03] yes=1,no=2,missing=1
	1:[2147<3.879450e-02] yes=5,no=6,missing=5
		5:[1176<3.083500e-02] yes=7,no=8,missing=7
			7:leaf=0.00488280
			8:leaf=0.07036500
		6:leaf=-0.04908840
	2:[2608<4.457750e-02] yes=3,no=4,missing=3
		3:[690<1.008130e-01] yes=11,no=12,missing=11
			11:leaf=-0.10215000
			12:leaf=0.00082726
		4:[1758<5.220200e-01] yes=9,no=10,missing=9
			9:leaf=0.06166020
			10:leaf=-0.02697360
booster[100]:
0:[1271<4.261400e-02] yes=1,no=2,missing=1
	1:[1867<1.861820e-01] yes=5,no=6,missing=5
		5:[248<2.876350e-01] yes=7,no=8,missing=7
			7:leaf=-0.00495148
			8:leaf=0.06006900
		6:leaf=-0.05180060
	2:[586<6.548900e-02] yes=3,no=4,missing=3
		3:[2053<4.358800e-02] yes=11,no=12,missing=11
			11:leaf=-0.08738120
			12:leaf=-0.01286370
		4:[2337<1.084810e-01] yes=9,no=10,missing=9
			9:leaf=-0.02496060
			10:leaf=0.04963980
booster[101]:
0:[277<2.570850e-02] yes=1,no=2,missing=1
	1:[2552<6.916740e-01] yes=7,no=8,missing=7
		7:[1415<3.993300e-02] yes=9,no=10,missing=9
			9:leaf=-0.02733740
			10:leaf=0.04474000
		8:[217<5.347190e-01] yes=11,no=12,missing=11
			11:leaf=0.08494480
			12:leaf=-0.00988246
	2:[1355<1.355410e-01] yes=3,no=4,missing=3
		3:[337<1.189970e-01] yes=13,no=14,missing=13
			13:leaf=-0.08805220
			14:leaf=0.00752084
		4:[1118<1.391400e-01] yes=5,no=6,missing=5
			5:leaf=0.05052580
			6:leaf=-0.02979100
booster[102]:
0:[2458<3.066100e-02] yes=1,no=2,missing=1
	1:[12<3.076970e-01] yes=5,no=6,missing=5
		5:[2111<3.352350e-02] yes=7,no=8,missing=7
			7:leaf=0.03447860
			8:leaf=-0.03269020
		6:leaf=-0.05038700
	2:[1115<5.148550e-02] yes=3,no=4,missing=3
		3:[1453<1.089160e-01] yes=11,no=12,missing=11
			11:leaf=-0.08836740
			12:leaf=-0.01423600
		4:[1805<3.746250e-02] yes=9,no=10,missing=9
			9:leaf=-0.02670540
			10:leaf=0.04339340
booster[103]:
0:[2061<6.604050e-02] yes=1,no=2,missing=1
	1:[669<6.796100e-02] yes=3,no=4,missing=3
		3:[1806<3.987500e-02] yes=5,no=6,missing=5
			5:leaf=-0.02499620
			6:leaf=0.04447640
		4:[2049<1.267870e-01] yes=9,no=10,missing=9
			9:leaf=0.08334520
			10:leaf=-0.00316206
	2:[995<1.620210e-01] yes=7,no=8,missing=7
		7:leaf=-0.06921140
		8:[966<6.717200e-02] yes=11,no=12,missing=11
			11:leaf=0.04296700
			12:leaf=-0.03022420
booster[104]:
0:[356<5.058750e-01] yes=1,no=2,missing=1
	1:[419<7.853960e-01] yes=3,no=4,missing=3
		3:[675<3.695450e-02] yes=7,no=8,missing=7
			7:leaf=-0.02493780
			8:leaf=0.05119640
		4:[442<6.921590e-01] yes=9,no=10,missing=9
			9:leaf=0.07647700
			10:leaf=-0.02006240
	2:[2334<1.287250e-01] yes=5,no=6,missing=5
		5:[1367<6.830450e-02] yes=11,no=12,missing=11
			11:leaf=-0.09251340
			12:leaf=0.01055030
		6:[827<1.507210e-01] yes=13,no=14,missing=13
			13:leaf=0.05849740
			14:leaf=-0.02400580
booster[105]:
0:[257<2.488900e-02] yes=1,no=2,missing=1
	1:[2939<1.087100e+00] yes=5,no=6,missing=5
		5:[3287<-9.454650e-02] yes=7,no=8,missing=7
			7:leaf=0.01008860
			8:leaf=0.09565300
		6:leaf=-0.05319780
	2:[1174<9.126100e-02] yes=3,no=4,missing=3
		3:[2505<1.924320e-01] yes=11,no=12,missing=11
			11:leaf=-0.08518780
			12:leaf=0.01345070
		4:[961<1.888880e-01] yes=9,no=10,missing=9
			9:leaf=0.04984360
			10:leaf=-0.03410060
booster[106]:
0:[719<2.843050e-02] yes=1,no=2,missing=1
	1:[2173<6.334250e-02] yes=5,no=6,missing=5
		5:[1821<1.396950e-01] yes=7,no=8,missing=7
			7:leaf=0.00228248
			8:leaf=0.06951060
		6:leaf=-0.05093480
	2:[418<6.772490e-01] yes=3,no=4,missing=3
		3:[3132<-4.266500e-02] yes=9,no=10,missing=9
			9:leaf=-0.09543520
			10:leaf=0.00981124
		4:leaf=0.02356960
booster[107]:
0:[54<1.016480e+00] yes=1,no=2,missing=1
	1:[445<6.698170e-01] yes=3,no=4,missing=3
		3:[58<4.021990e-01] yes=5,no=6,missing=5
			5:leaf=-0.01762180
			6:leaf=0.04467740
		4:[1118<9.938550e-02] yes=9,no=10,missing=9
			9:leaf=-0.06131940
			10:leaf=0.01950100
	2:[74<5.000000e-01] yes=7,no=8,missing=7
		7:[1800<2.101250e-02] yes=11,no=12,missing=11
			11:leaf=0.04791140
			12:leaf=-0.02683440
		8:leaf=-0.07262280
booster[108]:
0:[1132<3.006300e-02] yes=1,no=2,missing=1
	1:[3882<1.188630e+00] yes=5,no=6,missing=5
		5:[248<2.876350e-01] yes=7,no=8,missing=7
			7:leaf=-0.00194746
			8:leaf=0.06271800
		6:leaf=-0.04538680
	2:[2508<7.028150e-02] yes=3,no=4,missing=3
		3:[1822<8.568450e-02] yes=9,no=10,missing=9
			9:leaf=-0.08756740
			10:leaf=0.00984252
		4:[2342<8.189350e-02] yes=11,no=12,missing=11
			11:leaf=0.04842580
			12:leaf=-0.02832740
booster[109]:
0:[1192<6.795000e-02] yes=1,no=2,missing=1
	1:[1147<8.876700e-02] yes=3,no=4,missing=3
		3:[940<8.065500e-03] yes=5,no=6,missing=5
			5:leaf=0.00956774
			6:leaf=-0.06163160
		4:[1445<1.184850e-02] yes=7,no=8,missing=7
			7:leaf=0.06625380
			8:leaf=-0.02356360
	2:[1846<8.219000e-01] yes=9,no=10,missing=9
		9:[2093<9.534650e-02] yes=11,no=12,missing=11
			11:leaf=-0.08231240
			12:leaf=0.00430594
		10:leaf=0.02186400
booster[110]:
0:[82<5.000000e-01] yes=1,no=2,missing=1
	1:[757<3.289300e-01] yes=3,no=4,missing=3
		3:[784<5.074150e-02] yes=5,no=6,missing=5
			5:leaf=-0.08721660
			6:leaf=0.01864030
		4:[23<7.986220e-01] yes=13,no=14,missing=13
			13:leaf=0.05743140
			14:leaf=-0.01749870
	2:[598<4.614200e-02] yes=7,no=8,missing=7
		7:[2038<1.085400e-02] yes=9,no=10,missing=9
			9:leaf=-0.00398104
			10:leaf=0.06531160
		8:[769<2.475950e-01] yes=11,no=12,missing=11
			11:leaf=-0.07124440
			12:leaf=0.01416410
booster[111]:
0:[2221<5.283700e-02] yes=1,no=2,missing=1
	1:[2240<7.535700e-02] yes=5,no=6,missing=5
		5:[1837<2.276050e-02] yes=7,no=8,missing=7
			7:leaf=0.01666990
			8:leaf=-0.05243660
		6:[2359<5.419250e-02] yes=9,no=10,missing=9
			9:leaf=-0.01935360
			10:leaf=0.07044400
	2:[2266<2.057250e-01] yes=3,no=4,missing=3
		3:[1318<7.821650e-02] yes=11,no=12,missing=11
			11:leaf=-0.08373100
			12:leaf=-0.01077890
		4:leaf=0.02548440
booster[112]:
0:[2176<5.529500e-02] yes=1,no=2,missing=1
	1:[1690<3.893750e-02] yes=5,no=6,missing=5
		5:[442<6.921590e-01] yes=9,no=10,missing=9
			9:leaf=0.00548610
			10:leaf=-0.06460820
		6:[359<5.599560e-01] yes=7,no=8,missing=7
			7:leaf=0.07256580
			8:leaf=-0.02806360
	2:[327<1.396800e-01] yes=3,no=4,missing=3
		3:leaf=-0.07205600
		4:leaf=0.02420480
booster[113]:
0:[1534<1.423680e-01] yes=1,no=2,missing=1
	1:[1806<3.987500e-02] yes=3,no=4,missing=3
		3:[82<5.000000e-01] yes=5,no=6,missing=5
			5:leaf=-0.05138800
			6:leaf=0.01375730
		4:[861<5.698650e-02] yes=7,no=8,missing=7
			7:leaf=0.06229680
			8:leaf=-0.02546100
	2:[770<6.806400e-02] yes=9,no=10,missing=9
		9:leaf=-0.06772540
		10:leaf=0.00524042
booster[114]:
0:[2733<9.913470e-01] yes=1,no=2,missing=1
	1:[1415<3.993300e-02] yes=5,no=6,missing=5
		5:[229<5.000000e-01] yes=9,no=10,missing=9
			9:leaf=0.00125361
			10:leaf=-0.08178660
		6:[761<8.714400e-02] yes=7,no=8,missing=7
			7:leaf=0.05548720
			8:leaf=-0.02319560
	2:[1415<1.331100e-02] yes=3,no=4,missing=3
		3:leaf=0.08048840
		4:leaf=-0.02229920
booster[115]:
0:[165<9.337400e-01] yes=1,no=2,missing=1
	1:[1769<3.832320e-01] yes=3,no=4,missing=3
		3:[427<9.501640e-01] yes=5,no=6,missing=5
			5:leaf=-0.00944418
			6:leaf=0.05642980
		4:leaf=-0.07469900
	2:[2333<4.849100e-02] yes=7,no=8,missing=7
		7:[189<-7.838000e-03] yes=9,no=10,missing=9
			9:leaf=0.00063518
			10:leaf=0.07270100
		8:leaf=-0.01672000
booster[116]:
0:[767<1.083550e-01] yes=1,no=2,missing=1
	1:[1278<1.929390e-01] yes=3,no=4,missing=3
		3:[2150<2.964000e-02] yes=5,no=6,missing=5
			5:leaf=0.01101590
			6:leaf=-0.05640600
		4:[356<4.892890e-01] yes=9,no=10,missing=9
			9:leaf=0.06970200
			10:leaf=0.00454456
	2:[2399<1.171490e-01] yes=7,no=8,missing=7
		7:leaf=-0.06817480
		8:leaf=0.01126050
booster[117]:
0:[38<8.780340e-01] yes=1,no=2,missing=1
	1:[142<2.030310e-01] yes=3,no=4,missing=3
		3:[306<3.332700e-02] yes=5,no=6,missing=5
			5:leaf=-0.02356960
			6:leaf=0.02889280
		4:[423<8.387410e-01] yes=9,no=10,missing=9
			9:leaf=-0.08074960
			10:leaf=0.00003337
	2:[120<4.686120e-01] yes=7,no=8,missing=7
		7:leaf=-0.01672120
		8:leaf=0.06038440
booster[118]:
0:[1858<4.631800e-02] yes=1,no=2,missing=1
	1:[3882<1.188630e+00] yes=3,no=4,missing=3
		3:[248<2.876350e-01] yes=7,no=8,missing=7
			7:leaf=0.00034316
			8:leaf=0.05562000
		4:leaf=-0.05322940
	2:[690<3.360450e-02] yes=5,no=6,missing=5
		5:[2707<3.140500e-02] yes=11,no=12,missing=11
			11:leaf=-0.08121440
			12:leaf=-0.00615810
		6:[110<1.213430e-01] yes=9,no=10,missing=9
			9:leaf=0.04097560
			10:leaf=-0.02801020
booster[119]:
0:[2458<3.066100e-02] yes=1,no=2,missing=1
	1:[228<5.000000e-01] yes=5,no=6,missing=5
		5:[2060<7.600500e-03] yes=7,no=8,missing=7
			7:leaf=0.03611960
			8:leaf=-0.02828280
		6:[246<7.374510e-01] yes=9,no=10,missing=9
			9:leaf=-0.05923840
			10:leaf=0.01654490
	2:[1490<3.032450e-02] yes=3,no=4,missing=3
		3:[680<7.011800e-02] yes=13,no=14,missing=13
			13:leaf=-0.08625280
			14:leaf=-0.00235572
		4:[2746<-1.425930e-01] yes=11,no=12,missing=11
			11:leaf=0.04190280
			12:leaf=-0.01987430
booster[120]:
0:[1498<2.847520e-01] yes=1,no=2,missing=1
	1:[1526<2.303300e-02] yes=3,no=4,missing=3
		3:[3144<-4.916700e-02] yes=7,no=8,missing=7
			7:leaf=0.01975250
			8:leaf=-0.04897680
		4:[3613<-1.352480e-01] yes=5,no=6,missing=5
			5:leaf=-0.06738640
			6:leaf=0.03110220
	2:[1396<1.160480e-01] yes=9,no=10,missing=9
		9:leaf=0.05827160
		10:leaf=-0.01676410
booster[121]:
0:[58<1.297610e-01] yes=1,no=2,missing=1
	1:leaf=-0.04839400
	2:[2<3.688840e-01] yes=3,no=4,missing=3
		3:[342<1.419740e-01] yes=5,no=6,missing=5
			5:leaf=0.03222500
			6:leaf=-0.01666040
		4:[371<5.049700e-01] yes=7,no=8,missing=7
			7:leaf=-0.06834380
			8:leaf=0.01607950
booster[122]:
0:[634<1.989650e-01] yes=1,no=2,missing=1
	1:[1753<3.284150e-02] yes=3,no=4,missing=3
		3:[306<3.332700e-02] yes=5,no=6,missing=5
			5:leaf=-0.01926240
			6:leaf=0.02895320
		4:[1854<4.494620e-01] yes=7,no=8,missing=7
			7:leaf=-0.07872540
			8:leaf=0.01398340
	2:leaf=0.04104740
booster[123]:
0:[1937<3.993160e-01] yes=1,no=2,missing=1
	1:[183<7.520000e-04] yes=3,no=4,missing=3
		3:[2552<6.916740e-01] yes=7,no=8,missing=7
			7:leaf=-0.01351930
			8:leaf=0.03240860
		4:leaf=-0.06720140
	2:[978<6.186470e-01] yes=5,no=6,missing=5
		5:leaf=0.06105340
		6:leaf=-0.02023860
booster[124]:
0:[162<2.294870e-01] yes=1,no=2,missing=1
	1:[183<7.520000e-04] yes=3,no=4,missing=3
		3:[894<5.853450e-02] yes=7,no=8,missing=7
			7:leaf=0.01068520
			8:leaf=-0.05012340
		4:leaf=-0.06798380
	2:[206<2.174230e-01] yes=5,no=6,missing=5
		5:leaf=0.06406360
		6:leaf=-0.02686640
booster[125]:
0:[1479<6.679450e-02] yes=1,no=2,missing=1
	1:[2600<3.653300e-02] yes=5,no=6,missing=5
		5:[1377<3.653150e-02] yes=7,no=8,missing=7
			7:leaf=0.00113208
			8:leaf=-0.06314300
		6:[1387<7.651800e-02] yes=9,no=10,missing=9
			9:leaf=0.06142140
			10:leaf=-0.01564780
	2:[1888<5.131150e-02] yes=3,no=4,missing=3
		3:leaf=0.06831400
		4:leaf=-0.03393880
booster[126]:
0:[165<9.337400e-01] yes=1,no=2,missing=1
	1:[1769<3.832320e-01] yes=3,no=4,missing=3
		3:[1147<8.876700e-02] yes=5,no=6,missing=5
			5:leaf=-0.01688760
			6:leaf=0.03239700
		4:leaf=-0.06665180
	2:[1398<1.713760e-01] yes=7,no=8,missing=7
		7:[189<5.805600e-01] yes=9,no=10,missing=9
			9:leaf=-0.00003725
			10:leaf=0.06929360
		8:leaf=-0.01208430
booster[127]:
0:[767<1.083550e-01] yes=1,no=2,missing=1
	1:[1278<1.929390e-01] yes=3,no=4,missing=3
		3:[2150<2.964000e-02] yes=5,no=6,missing=5
			5:leaf=0.00888612
			6:leaf=-0.05161620
		4:[420<7.192630e-01] yes=9,no=10,missing=9
			9:leaf=0.00481090
			10:leaf=0.06554960
	2:[2399<1.171490e-01] yes=7,no=8,missing=7
		7:leaf=-0.06073040
		8:leaf=0.00774814
booster[128]:
0:[185<-5.600000e-04] yes=1,no=2,missing=1
	1:[475<2.063550e-02] yes=3,no=4,missing=3
		3:[2739<5.000000e-01] yes=7,no=8,missing=7
			7:leaf=-0.01189030
			8:leaf=0.05739600
		4:[1574<2.508700e-01] yes=5,no=6,missing=5
			5:leaf=-0.07380160
			6:leaf=0.02216420
	2:[348<3.904380e-01] yes=9,no=10,missing=9
		9:[94<5.000000e-01] yes=11,no=12,missing=11
			11:leaf=0.00660348
			12:leaf=0.07157460
		10:leaf=-0.02381240
booster[129]:
0:[739<1.896360e-01] yes=1,no=2,missing=1
	1:[1674<4.183900e-02] yes=3,no=4,missing=3
		3:[945<5.339150e-02] yes=5,no=6,missing=5
			5:leaf=0.00835822
			6:leaf=-0.06797800
		4:[2210<7.534000e-03] yes=7,no=8,missing=7
			7:leaf=-0.02061460
			8:leaf=0.06033660
	2:leaf=-0.04628900
booster[130]:
0:[1766<4.308400e-02] yes=1,no=2,missing=1
	1:[1279<4.513050e-01] yes=3,no=4,missing=3
		3:[1146<3.296400e-02] yes=5,no=6,missing=5
			5:leaf=0.01624750
			6:leaf=-0.03946040
		4:leaf=0.05817380
	2:[1899<3.028950e-02] yes=7,no=8,missing=7
		7:leaf=-0.06622100
		8:[1756<4.041270e-01] yes=9,no=10,missing=9
			9:leaf=0.03745940
			10:leaf=-0.02146280
booster[131]:
0:[3287<-9.454650e-02] yes=1,no=2,missing=1
	1:[481<3.303150e-02] yes=5,no=6,missing=5
		5:[2060<7.600500e-03] yes=7,no=8,missing=7
			7:leaf=-0.00078327
			8:leaf=-0.07661540
		6:[894<1.951150e-02] yes=9,no=10,missing=9
			9:leaf=0.04828540
			10:leaf=-0.01774620
	2:[3376<-1.217880e-01] yes=3,no=4,missing=3
		3:leaf=0.06389400
		4:leaf=-0.02674840
booster[132]:
0:[427<9.501640e-01] yes=1,no=2,missing=1
	1:[212<2.303030e-01] yes=5,no=6,missing=5
		5:[204<4.422850e-02] yes=7,no=8,missing=7
			7:leaf=-0.00238890
			8:leaf=-0.06529660
		6:leaf=0.03969800
	2:[105<5.401770e-01] yes=3,no=4,missing=3
		3:leaf=0.06883760
		4:leaf=-0.02229420
booster[133]:
0:[2249<4.609650e-02] yes=1,no=2,missing=1
	1:[306<3.332700e-02] yes=3,no=4,missing=3
		3:[143<9.954200e-02] yes=11,no=12,missing=11
			11:leaf=-0.03065040
			12:leaf=0.03712740
		4:[1557<5.975000e-02] yes=5,no=6,missing=5
			5:leaf=0.06325060
			6:leaf=-0.02042480
	2:[958<3.559650e-01] yes=7,no=8,missing=7
		7:[3458<-1.207380e-01] yes=9,no=10,missing=9
			9:leaf=-0.07478440
			10:leaf=0.01947240
		8:[296<3.363220e-01] yes=13,no=14,missing=13
			13:leaf=0.04270800
			14:leaf=-0.01590480
booster[134]:
0:[26<1.619250e-01] yes=1,no=2,missing=1
	1:[2056<3.514050e-02] yes=5,no=6,missing=5
		5:[58<1.297610e-01] yes=9,no=10,missing=9
			9:leaf=-0.03107840
			10:leaf=0.02774320
		6:[879<2.506380e-01] yes=7,no=8,missing=7
			7:leaf=-0.06885600
			8:leaf=0.01948730
	2:[409<1.184290e+00] yes=3,no=4,missing=3
		3:leaf=-0.06299840
		4:leaf=0.02100600
booster[135]:
0:[189<-9.000000e-03] yes=1,no=2,missing=1
	1:[473<3.838570e-01] yes=7,no=8,missing=7
		7:leaf=-0.05941700
		8:leaf=0.01562760
	2:[1151<1.034800e-02] yes=3,no=4,missing=3
		3:[419<7.853960e-01] yes=5,no=6,missing=5
			5:leaf=-0.00182825
			6:leaf=0.05755540
		4:[1349<2.589500e-02] yes=9,no=10,missing=9
			9:leaf=-0.05205160
			10:leaf=0.00712132
booster[136]:
0:[377<1.466940e-01] yes=1,no=2,missing=1
	1:[419<5.906700e-01] yes=3,no=4,missing=3
		3:[835<1.248100e-02] yes=9,no=10,missing=9
			9:leaf=-0.02459480
			10:leaf=0.04063700
		4:[319<4.517500e-02] yes=13,no=14,missing=13
			13:leaf=0.07583160
			14:leaf=-0.00144209
	2:[475<2.063550e-02] yes=5,no=6,missing=5
		5:[759<3.123800e-02] yes=11,no=12,missing=11
			11:leaf=-0.01931710
			12:leaf=0.04900340
		6:[2155<1.420310e-01] yes=7,no=8,missing=7
			7:leaf=-0.08074960
			8:leaf=0.01207210
booster[137]:
0:[1575<2.229400e-02] yes=1,no=2,missing=1
	1:[3882<1.188630e+00] yes=5,no=6,missing=5
		5:[2038<1.085400e-02] yes=7,no=8,missing=7
			7:leaf=-0.00068401
			8:leaf=0.05016920
		6:leaf=-0.05109280
	2:[2210<7.534000e-03] yes=3,no=4,missing=3
		3:[410<7.390890e-01] yes=11,no=12,missing=11
			11:leaf=-0.07276060
			12:leaf=-0.01108430
		4:[2061<6.604050e-02] yes=9,no=10,missing=9
			9:leaf=0.03762420
			10:leaf=-0.02577340
booster[138]:
0:[467<1.747900e-02] yes=1,no=2,missing=1
	1:[1146<4.065550e-01] yes=5,no=6,missing=5
		5:[1146<3.296400e-02] yes=7,no=8,missing=7
			7:leaf=0.01604620
			8:leaf=-0.04059120
		6:[2324<4.217280e-01] yes=9,no=10,missing=9
			9:leaf=0.07423440
			10:leaf=-0.01531850
	2:[1077<1.135940e-01] yes=3,no=4,missing=3
		3:leaf=-0.05996360
		4:leaf=0.01858380
booster[139]:
0:[1271<4.261400e-02] yes=1,no=2,missing=1
	1:[1543<6.220300e-02] yes=5,no=6,missing=5
		5:[1726<2.953650e-02] yes=7,no=8,missing=7
			7:leaf=-0.00168336
			8:leaf=0.05675740
		6:leaf=-0.03798220
	2:[1695<3.917800e-01] yes=3,no=4,missing=3
		3:[1046<1.352340e-01] yes=9,no=10,missing=9
			9:leaf=-0.07330540
			10:leaf=0.00342306
		4:leaf=0.02717320
booster[140]:
0:[410<8.699020e-01] yes=1,no=2,missing=1
	1:[1191<3.117500e-02] yes=5,no=6,missing=5
		5:[2003<3.961050e-02] yes=7,no=8,missing=7
			7:leaf=0.00596844
			8:leaf=-0.05282200
		6:[1191<9.352550e-02] yes=11,no=12,missing=11
			11:leaf=0.06772040
			12:leaf=-0.00178677
	2:[562<1.833800e-01] yes=3,no=4,missing=3
		3:[351<5.283470e-01] yes=13,no=14,missing=13
			13:leaf=-0.06870140
			14:leaf=-0.00962772
		4:[1862<1.594170e-01] yes=9,no=10,missing=9
			9:leaf=0.04398540
			10:leaf=-0.01544330
booster[141]:
0:[311<3.213600e-02] yes=1,no=2,missing=1
	1:[319<4.517500e-02] yes=5,no=6,missing=5
		5:[2552<6.916740e-01] yes=7,no=8,missing=7
			7:leaf=-0.01734870
			8:leaf=0.04926420
		6:[417<3.705750e-01] yes=11,no=12,missing=11
			11:leaf=-0.07969620
			12:leaf=0.00520602
	2:[1205<6.858650e-02] yes=3,no=4,missing=3
		3:[1158<4.245400e-02] yes=13,no=14,missing=13
			13:leaf=0.07125040
			14:leaf=0.00711608
		4:[2113<1.050900e-01] yes=9,no=10,missing=9
			9:leaf=-0.05443080
			10:leaf=0.02253780
booster[142]:
0:[753<9.708000e-03] yes=1,no=2,missing=1
	1:[1191<3.117500e-02] yes=5,no=6,missing=5
		5:[1<6.423300e-01] yes=7,no=8,missing=7
			7:leaf=-0.01975140
			8:leaf=0.03545300
		6:[2472<5.482050e-02] yes=9,no=10,missing=9
			9:leaf=0.06247640
			10:leaf=0.00417838
	2:[2266<2.057250e-01] yes=3,no=4,missing=3
		3:[1786<5.199300e-02] yes=11,no=12,missing=11
			11:leaf=-0.01066490
			12:leaf=-0.06574700
		4:leaf=0.02181220
booster[143]:
0:[3261<-3.131250e-01] yes=1,no=2,missing=1
	1:[3532<4.059090e-01] yes=3,no=4,missing=3
		3:[325<1.889200e-02] yes=5,no=6,missing=5
			5:leaf=0.00886438
			6:leaf=-0.03720400
		4:[3846<-1.811810e-01] yes=7,no=8,missing=7
			7:leaf=0.06246060
			8:leaf=-0.00454130
	2:leaf=-0.04003960
booster[144]:
0:[12<3.076970e-01] yes=1,no=2,missing=1
	1:[1867<1.861820e-01] yes=3,no=4,missing=3
		3:[532<8.627450e-02] yes=5,no=6,missing=5
			5:leaf=0.00319724
			6:leaf=0.06151180
		4:[2399<1.975850e-01] yes=7,no=8,missing=7
			7:leaf=-0.05361600
			8:leaf=0.01591600
	2:leaf=-0.03498440
booster[145]:
0:[189<-9.000000e-03] yes=1,no=2,missing=1
	1:[473<3.838570e-01] yes=9,no=10,missing=9
		9:leaf=-0.05365940
		10:leaf=0.01317120
	2:[403<5.468640e-01] yes=3,no=4,missing=3
		3:[44<4.041790e-01] yes=7,no=8,missing=7
			7:leaf=0.02602360
			8:leaf=-0.03610140
		4:[2915<-9.479100e-02] yes=5,no=6,missing=5
			5:leaf=-0.05730500
			6:leaf=0.02474600
booster[146]:
0:[1147<8.876700e-02] yes=1,no=2,missing=1
	1:[162<2.294870e-01] yes=5,no=6,missing=5
		5:[229<5.000000e-01] yes=7,no=8,missing=7
			7:leaf=0.01282910
			8:leaf=-0.04883300
		6:leaf=0.03157200
	2:[1147<2.663000e-01] yes=3,no=4,missing=3
		3:[319<4.517500e-02] yes=11,no=12,missing=11
			11:leaf=0.06787980
			12:leaf=-0.00041702
		4:[2385<5.765010e-01] yes=9,no=10,missing=9
			9:leaf=-0.03927760
			10:leaf=0.02917200
booster[147]:
0:[311<3.213600e-02] yes=1,no=2,missing=1
	1:[155<3.715820e-01] yes=5,no=6,missing=5
		5:[1806<3.987500e-02] yes=9,no=10,missing=9
			9:leaf=-0.03673440
			10:leaf=0.02714780
		6:[377<1.466940e-01] yes=7,no=8,missing=7
			7:leaf=0.06792980
			8:leaf=-0.02376640
	2:[2126<6.435500e-03] yes=3,no=4,missing=3
		3:[1205<6.858650e-02] yes=13,no=14,missing=13
			13:leaf=0.06948560
			14:leaf=-0.00031333
		4:[1775<3.697760e-01] yes=11,no=12,missing=11
			11:leaf=-0.04815020
			12:leaf=0.02759980
booster[148]:
0:[189<-9.000000e-03] yes=1,no=2,missing=1
	1:[2081<4.604050e-02] yes=7,no=8,missing=7
		7:leaf=-0.05507080
		8:leaf=0.01074550
	2:[1151<1.034800e-02] yes=3,no=4,missing=3
		3:[794<1.686500e-02] yes=5,no=6,missing=5
			5:leaf=-0.00044862
			6:leaf=0.05521360
		4:[2267<4.189850e-02] yes=9,no=10,missing=9
			9:leaf=-0.04529960
			10:leaf=0.00852750
booster[149]:
0:[2669<7.823700e-02] yes=1,no=2,missing=1
	1:[669<6.796100e-02] yes=3,no=4,missing=3
		3:[445<6.698170e-01] yes=5,no=6,missing=5
			5:leaf=0.00908920
			6:leaf=-0.04788380
		4:[2186<1.199380e-01] yes=7,no=8,missing=7
			7:leaf=0.06180440
			8:leaf=-0.00999328
	2:leaf=-0.03303600
booster[150]:
0:[1498<2.847520e-01] yes=1,no=2,missing=1
	1:[1526<2.303300e-02] yes=3,no=4,missing=3
		3:[3144<-4.916700e-02] yes=7,no=8,missing=7
			7:leaf=0.01810000
			8:leaf=-0.04125780
		4:[2466<5.185050e-02] yes=5,no=6,missing=5
			5:leaf=-0.06823940
			6:leaf=0.01370470
	2:[249<9.020210e-01] yes=9,no=10,missing=9
		9:leaf=0.04855540
		10:leaf=-0.00611054
booster[151]:
0:[878<1.736140e-01] yes=1,no=2,missing=1
	1:[254<8.744900e-01] yes=3,no=4,missing=3
		3:[1690<3.893750e-02] yes=5,no=6,missing=5
			5:leaf=-0.00612568
			6:leaf=0.05417720
		4:[835<1.248100e-02] yes=7,no=8,missing=7
			7:leaf=-0.06840360
			8:leaf=0.01273600
	2:[1882<9.985650e-02] yes=9,no=10,missing=9
		9:[582<1.429480e-01] yes=11,no=12,missing=11
			11:leaf=0.06267480
			12:leaf=-0.00218028
		10:leaf=-0.02218740
booster[152]:
0:[753<9.708000e-03] yes=1,no=2,missing=1
	1:[1948<6.169150e-02] yes=5,no=6,missing=5
		5:[794<1.686500e-02] yes=7,no=8,missing=7
			7:leaf=-0.01658540
			8:leaf=0.03908860
		6:[54<9.142650e-01] yes=9,no=10,missing=9
			9:leaf=0.06177860
			10:leaf=0.00336182
	2:[393<9.786190e-01] yes=3,no=4,missing=3
		3:leaf=-0.05219820
		4:leaf=0.01997090
booster[153]:
0:[1766<4.308400e-02] yes=1,no=2,missing=1
	1:[1723<4.016850e-02] yes=3,no=4,missing=3
		3:[1786<5.199300e-02] yes=5,no=6,missing=5
			5:leaf=0.01188770
			6:leaf=-0.05748300
		4:[3550<5.921090e-01] yes=9,no=10,missing=9
			9:leaf=0.00020583
			10:leaf=0.06923460
	2:[1064<1.984670e-01] yes=7,no=8,missing=7
		7:leaf=-0.04882000
		8:leaf=0.01743690
booster[154]:
0:[2733<9.913470e-01] yes=1,no=2,missing=1
	1:[1415<3.993300e-02] yes=5,no=6,missing=5
		5:[229<5.000000e-01] yes=9,no=10,missing=9
			9:leaf=0.00265870
			10:leaf=-0.06592780
		6:[142<2.321950e-01] yes=7,no=8,missing=7
			7:leaf=0.03513340
			8:leaf=-0.03320740
	2:[1415<1.331100e-02] yes=3,no=4,missing=3
		3:leaf=0.07112420
		4:leaf=-0.02543580
booster[155]:
0:[1056<6.911450e-02] yes=1,no=2,missing=1
	1:[1911<1.707500e-03] yes=3,no=4,missing=3
		3:[432<7.355750e-01] yes=5,no=6,missing=5
			5:leaf=-0.02761340
			6:leaf=0.03732560
		4:[1239<3.129300e-02] yes=7,no=8,missing=7
			7:leaf=0.05003820
			8:leaf=-0.01930890
	2:[1810<5.990000e-02] yes=9,no=10,missing=9
		9:leaf=-0.05381780
		10:leaf=0.01559410
booster[156]:
0:[257<2.488900e-02] yes=1,no=2,missing=1
	1:[1839<3.771900e-02] yes=5,no=6,missing=5
		5:[309<1.216640e-01] yes=7,no=8,missing=7
			7:leaf=-0.01469920
			8:leaf=0.04563200
		6:leaf=0.05616640
	2:[1174<9.126100e-02] yes=3,no=4,missing=3
		3:[3669<9.781370e-01] yes=11,no=12,missing=11
			11:leaf=-0.06516300
			12:leaf=0.00404390
		4:[851<1.179870e-01] yes=9,no=10,missing=9
			9:leaf=0.04127020
			10:leaf=-0.02367000
booster[157]:
0:[1575<2.229400e-02] yes=1,no=2,missing=1
	1:[3882<1.012540e+00] yes=3,no=4,missing=3
		3:[1964<2.235350e-02] yes=7,no=8,missing=7
			7:leaf=0.03593860
			8:leaf=-0.01970770
		4:leaf=-0.04484080
	2:[690<3.360450e-02] yes=5,no=6,missing=5
		5:[2009<3.516900e-02] yes=9,no=10,missing=9
			9:leaf=-0.07388600
			10:leaf=-0.00123142
		6:[1706<5.994970e-01] yes=11,no=12,missing=11
			11:leaf=0.03356000
			12:leaf=-0.02271540
booster[158]:
0:[599<3.924250e-02] yes=1,no=2,missing=1
	1:[2553<7.768090e-01] yes=5,no=6,missing=5
		5:[228<5.000000e-01] yes=7,no=8,missing=7
			7:leaf=0.03348920
			8:leaf=-0.03249120
		6:leaf=-0.03731060
	2:[2495<1.162460e-01] yes=3,no=4,missing=3
		3:[4<1.572600e-02] yes=9,no=10,missing=9
			9:leaf=-0.08135740
			10:leaf=-0.00207242
		4:[1706<4.662760e-01] yes=11,no=12,missing=11
			11:leaf=0.03980540
			12:leaf=-0.01685350
booster[159]:
0:[38<8.780340e-01] yes=1,no=2,missing=1
	1:[978<3.256050e-02] yes=3,no=4,missing=3
		3:[2144<5.273750e-02] yes=7,no=8,missing=7
			7:leaf=-0.00743722
			8:leaf=0.05537460
		4:[1317<6.204800e-02] yes=5,no=6,missing=5
			5:leaf=-0.07295740
			6:leaf=0.00308842
	2:[48<1.362030e+00] yes=9,no=10,missing=9
		9:leaf=0.05447400
		10:leaf=-0.01425440
booster[160]:
0:[3146<1.261740e-01] yes=1,no=2,missing=1
	1:[2915<-9.479100e-02] yes=3,no=4,missing=3
		3:[1575<2.229400e-02] yes=5,no=6,missing=5
			5:leaf=0.01019710
			6:leaf=-0.03132360
		4:leaf=0.04974120
	2:leaf=-0.03401800
booster[161]:
0:[427<9.501640e-01] yes=1,no=2,missing=1
	1:[1858<4.631800e-02] yes=5,no=6,missing=5
		5:[246<5.476120e-01] yes=7,no=8,missing=7
			7:leaf=-0.01464000
			8:leaf=0.04537260
		6:[3088<4.933950e-02] yes=9,no=10,missing=9
			9:leaf=-0.06470920
			10:leaf=0.01695650
	2:[6<3.529080e-01] yes=3,no=4,missing=3
		3:leaf=0.06067720
		4:leaf=-0.01859240
booster[162]:
0:[2225<9.476500e-03] yes=1,no=2,missing=1
	1:[319<4.517500e-02] yes=7,no=8,missing=7
		7:[192<4.463460e-01] yes=9,no=10,missing=9
			9:leaf=-0.01161860
			10:leaf=0.04875580
		8:[3422<-8.115750e-02] yes=11,no=12,missing=11
			11:leaf=-0.05582120
			12:leaf=-0.00553520
	2:[1062<1.202300e-01] yes=3,no=4,missing=3
		3:leaf=0.05610480
		4:[1048<1.131720e-01] yes=5,no=6,missing=5
			5:leaf=-0.04423080
			6:leaf=0.02567600
booster[163]:
0:[3261<-3.131250e-01] yes=1,no=2,missing=1
	1:[2916<-7.204400e-02] yes=3,no=4,missing=3
		3:[325<1.889200e-02] yes=5,no=6,missing=5
			5:leaf=0.01000380
			6:leaf=-0.03776940
		4:[2734<9.414850e-01] yes=7,no=8,missing=7
			7:leaf=-0.00117044
			8:leaf=0.06217940
	2:leaf=-0.03690720
booster[164]:
0:[887<8.385400e-02] yes=1,no=2,missing=1
	1:[217<5.374830e-01] yes=3,no=4,missing=3
		3:[82<5.000000e-01] yes=5,no=6,missing=5
			5:leaf=-0.02972980
			6:leaf=0.02294040
		4:[246<5.476120e-01] yes=7,no=8,missing=7
			7:leaf=-0.06467360
			8:leaf=0.00570906
	2:[655<8.803050e-02] yes=9,no=10,missing=9
		9:leaf=0.04881140
		10:leaf=-0.01510650
booster[165]:
0:[2380<1.437890e-01] yes=1,no=2,missing=1
	1:[940<8.065500e-03] yes=3,no=4,missing=3
		3:[1<6.423300e-01] yes=7,no=8,missing=7
			7:leaf=-0.00792248
			8:leaf=0.03725800
		4:[2608<4.457750e-02] yes=5,no=6,missing=5
			5:leaf=-0.06597660
			6:leaf=0.00949876
	2:leaf=0.03137240
booster[166]:
0:[2324<2.919650e-01] yes=1,no=2,missing=1
	1:[1821<1.396950e-01] yes=3,no=4,missing=3
		3:[233<5.975230e-01] yes=7,no=8,missing=7
			7:leaf=0.00743346
			8:leaf=-0.04026140
		4:[2015<3.700650e-02] yes=5,no=6,missing=5
			5:leaf=0.07355340
			6:leaf=-0.02028160
	2:[371<5.851240e-01] yes=9,no=10,missing=9
		9:leaf=-0.05359520
		10:leaf=0.01153060
booster[167]:
0:[58<1.297610e-01] yes=1,no=2,missing=1
	1:leaf=-0.03565900
	2:[342<1.419740e-01] yes=3,no=4,missing=3
		3:[284<4.697700e-02] yes=7,no=8,missing=7
			7:leaf=0.02813320
			8:leaf=-0.03433780
		4:[1317<6.204800e-02] yes=5,no=6,missing=5
			5:leaf=-0.05496580
			6:leaf=0.01379850
booster[168]:
0:[427<9.501640e-01] yes=1,no=2,missing=1
	1:[907<6.801450e-02] yes=5,no=6,missing=5
		5:[885<6.391350e-02] yes=7,no=8,missing=7
			7:leaf=-0.03189620
			8:leaf=0.03774860
		6:[1255<6.365000e-02] yes=9,no=10,missing=9
			9:leaf=0.05112400
			10:leaf=-0.02703200
	2:[105<5.401770e-01] yes=3,no=4,missing=3
		3:leaf=0.05652200
		4:leaf=-0.01894070
booster[169]:
0:[719<2.843050e-02] yes=1,no=2,missing=1
	1:[53<1.162820e+00] yes=5,no=6,missing=5
		5:[58<4.021990e-01] yes=7,no=8,missing=7
			7:leaf=-0.01286630
			8:leaf=0.02889760
		6:leaf=-0.02992080
	2:[418<6.772490e-01] yes=3,no=4,missing=3
		3:leaf=-0.05029060
		4:leaf=0.01893640
booster[170]:
0:[349<4.684020e-01] yes=1,no=2,missing=1
	1:[1839<3.771900e-02] yes=3,no=4,missing=3
		3:[319<4.517500e-02] yes=7,no=8,missing=7
			7:leaf=0.00609448
			8:leaf=-0.03976280
		4:[893<2.715600e-02] yes=5,no=6,missing=5
			5:leaf=0.05506380
			6:leaf=-0.01565660
	2:leaf=-0.03095340
booster[171]:
0:[1498<2.847520e-01] yes=1,no=2,missing=1
	1:[2186<1.199380e-01] yes=3,no=4,missing=3
		3:[155<3.715820e-01] yes=7,no=8,missing=7
			7:leaf=-0.00656076
			8:leaf=0.04746320
		4:[219<9.412380e-01] yes=5,no=6,missing=5
			5:leaf=-0.06318380
			6:leaf=0.01456680
	2:[1116<1.937700e-01] yes=9,no=10,missing=9
		9:leaf=0.04452180
		10:leaf=-0.00577700
booster[172]:
0:[1805<3.371620e-01] yes=1,no=2,missing=1
	1:[1543<6.220300e-02] yes=3,no=4,missing=3
		3:[666<1.303920e-01] yes=7,no=8,missing=7
			7:leaf=-0.00745830
			8:leaf=0.03779940
		4:[3669<9.781370e-01] yes=5,no=6,missing=5
			5:leaf=-0.07044000
			6:leaf=0.01350390
	2:leaf=0.03299020
booster[173]:
0:[12<3.076970e-01] yes=1,no=2,missing=1
	1:[2165<9.271400e-02] yes=3,no=4,missing=3
		3:[1911<1.707500e-03] yes=7,no=8,missing=7
			7:leaf=-0.00231942
			8:leaf=0.03994840
		4:[1232<1.824800e-02] yes=5,no=6,missing=5
			5:leaf=-0.05229320
			6:leaf=0.01788380
	2:leaf=-0.03223900
booster[174]:
0:[634<1.989650e-01] yes=1,no=2,missing=1
	1:[2098<1.493400e-02] yes=3,no=4,missing=3
		3:[2147<3.879450e-02] yes=5,no=6,missing=5
			5:leaf=0.01325640
			6:leaf=-0.04013480
		4:[2100<2.553030e-01] yes=7,no=8,missing=7
			7:leaf=-0.06059580
			8:leaf=0.00023270
	2:leaf=0.03273580
booster[175]:
0:[8<6.559210e-01] yes=1,no=2,missing=1
	1:[64<8.218270e-01] yes=3,no=4,missing=3
		3:[2536<4.970650e-02] yes=5,no=6,missing=5
			5:leaf=-0.02746040
			6:leaf=0.02463860
		4:leaf=0.03292800
	2:[1158<4.245400e-02] yes=7,no=8,missing=7
		7:leaf=0.04588040
		8:leaf=-0.00826282
booster[176]:
0:[1776<1.832700e-02] yes=1,no=2,missing=1
	1:[445<7.738660e-01] yes=7,no=8,missing=7
		7:[1806<3.987500e-02] yes=9,no=10,missing=9
			9:leaf=0.00682434
			10:leaf=0.06433800
		8:leaf=-0.03486340
	2:[1317<6.204800e-02] yes=3,no=4,missing=3
		3:leaf=-0.06572800
		4:[642<2.969300e-02] yes=5,no=6,missing=5
			5:leaf=0.04010900
			6:leaf=-0.02414020
booster[177]:
0:[82<5.000000e-01] yes=1,no=2,missing=1
	1:[757<3.289300e-01] yes=3,no=4,missing=3
		3:[784<5.074150e-02] yes=5,no=6,missing=5
			5:leaf=-0.06899480
			6:leaf=0.01446550
		4:leaf=0.02823220
	2:[598<4.614200e-02] yes=7,no=8,missing=7
		7:[97<8.244860e-01] yes=9,no=10,missing=9
			9:leaf=-0.00658532
			10:leaf=0.04732380
		8:leaf=-0.03282440
booster[178]:
0:[2249<4.609650e-02] yes=1,no=2,missing=1
	1:[1015<4.565850e-02] yes=5,no=6,missing=5
		5:[82<5.000000e-01] yes=7,no=8,missing=7
			7:leaf=-0.03997760
			8:leaf=0.01220460
		6:leaf=0.04578340
	2:[2632<5.760050e-02] yes=3,no=4,missing=3
		3:[1405<8.511100e-02] yes=9,no=10,missing=9
			9:leaf=-0.06477540
			10:leaf=0.00509024
		4:[1266<5.446800e-01] yes=11,no=12,missing=11
			11:leaf=0.03575940
			12:leaf=-0.01458170
booster[179]:
0:[1146<4.065550e-01] yes=1,no=2,missing=1
	1:[1146<3.296400e-02] yes=5,no=6,missing=5
		5:[1<6.856330e-01] yes=9,no=10,missing=9
			9:leaf=-0.00691686
			10:leaf=0.04544580
		6:[2023<6.590050e-02] yes=7,no=8,missing=7
			7:leaf=-0.06652100
			8:leaf=0.02446960
	2:[2303<1.206120e-01] yes=3,no=4,missing=3
		3:leaf=0.05876980
		4:leaf=-0.01663010
booster[180]:
0:[833<2.728350e-02] yes=1,no=2,missing=1
	1:[1118<4.372950e-02] yes=3,no=4,missing=3
		3:[1415<6.655500e-02] yes=5,no=6,missing=5
			5:leaf=0.01136310
			6:leaf=-0.03682660
		4:[2003<3.961050e-02] yes=7,no=8,missing=7
			7:leaf=0.06204760
			8:leaf=-0.01038050
	2:[1574<2.508700e-01] yes=9,no=10,missing=9
		9:leaf=-0.05002420
		10:leaf=0.01175380
booster[181]:
0:[427<9.501640e-01] yes=1,no=2,missing=1
	1:[338<1.839180e-01] yes=5,no=6,missing=5
		5:[878<1.736140e-01] yes=7,no=8,missing=7
			7:leaf=-0.02434300
			8:leaf=0.02930540
		6:leaf=0.02986120
	2:[2049<1.267870e-01] yes=3,no=4,missing=3
		3:leaf=0.05564160
		4:leaf=-0.01486170
booster[182]:
0:[1919<3.416550e-02] yes=1,no=2,missing=1
	1:[1523<4.885600e-02] yes=5,no=6,missing=5
		5:[306<3.332700e-02] yes=7,no=8,missing=7
			7:leaf=-0.00122966
			8:leaf=0.03982200
		6:leaf=-0.03087760
	2:[279<5.280750e-02] yes=3,no=4,missing=3
		3:leaf=-0.05599040
		4:leaf=0.01526160
booster[183]:
0:[277<2.570850e-02] yes=1,no=2,missing=1
	1:[3707<3.487010e-01] yes=5,no=6,missing=5
		5:[1<6.423300e-01] yes=7,no=8,missing=7
			7:leaf=0.00510502
			8:leaf=0.05516720
		6:leaf=-0.03042540
	2:[1355<1.355410e-01] yes=3,no=4,missing=3
		3:[371<5.851240e-01] yes=11,no=12,missing=11
			11:leaf=-0.06354760
			12:leaf=0.00464626
		4:[642<2.969300e-02] yes=9,no=10,missing=9
			9:leaf=0.03885700
			10:leaf=-0.01535300
booster[184]:
0:[342<1.419740e-01] yes=1,no=2,missing=1
	1:[284<4.697700e-02] yes=5,no=6,missing=5
		5:[2038<1.085400e-02] yes=7,no=8,missing=7
			7:leaf=-0.00234592
			8:leaf=0.04292500
		6:leaf=-0.03534740
	2:[1291<5.343850e-02] yes=3,no=4,missing=3
		3:[652<1.081290e-01] yes=9,no=10,missing=9
			9:leaf=-0.06063040
			10:leaf=0.00966110
		4:leaf=0.02274380
booster[185]:
0:[1192<6.795000e-02] yes=1,no=2,missing=1
	1:[669<6.796100e-02] yes=3,no=4,missing=3
		3:[2091<5.933500e-02] yes=5,no=6,missing=5
			5:leaf=0.00967348
			6:leaf=-0.04306340
		4:[2103<5.205800e-02] yes=9,no=10,missing=9
			9:leaf=0.05205840
			10:leaf=0.00039713
	2:[1179<1.064690e-01] yes=7,no=8,missing=7
		7:leaf=-0.04489520
		8:leaf=0.01119130
booster[186]:
0:[833<2.728350e-02] yes=1,no=2,missing=1
	1:[1118<4.372950e-02] yes=3,no=4,missing=3
		3:[445<7.738660e-01] yes=5,no=6,missing=5
			5:leaf=0.00827104
			6:leaf=-0.04440920
		4:[2003<3.961050e-02] yes=7,no=8,missing=7
			7:leaf=0.05585000
			8:leaf=-0.00951832
	2:[932<1.697400e-01] yes=9,no=10,missing=9
		9:leaf=-0.04641040
		10:leaf=0.01140100
booster[187]:
0:[427<9.501640e-01] yes=1,no=2,missing=1
	1:[1858<4.631800e-02] yes=5,no=6,missing=5
		5:[1<6.856330e-01] yes=7,no=8,missing=7
			7:leaf=-0.01066080
			8:leaf=0.04099020
		6:[2579<1.068630e-01] yes=9,no=10,missing=9
			9:leaf=-0.05565280
			10:leaf=0.01442900
	2:[105<5.401770e-01] yes=3,no=4,missing=3
		3:leaf=0.05208480
		4:leaf=-0.01608890
booster[188]:
0:[852<6.866250e-02] yes=1,no=2,missing=1
	1:[2459<2.861750e-02] yes=3,no=4,missing=3
		3:[607<3.168950e-02] yes=5,no=6,missing=5
			5:leaf=0.00802348
			6:leaf=-0.04381360
		4:[1011<1.547150e-02] yes=9,no=10,missing=9
			9:leaf=0.05134120
			10:leaf=-0.00255246
	2:[2503<7.684850e-02] yes=7,no=8,missing=7
		7:leaf=-0.04824600
		8:leaf=0.01059410
booster[189]:
0:[8<6.559210e-01] yes=1,no=2,missing=1
	1:[64<8.218270e-01] yes=3,no=4,missing=3
		3:[58<4.151160e-01] yes=5,no=6,missing=5
			5:leaf=0.01559000
			6:leaf=-0.02852280
		4:leaf=0.02971840
	2:leaf=0.02811700
booster[190]:
0:[254<8.744900e-01] yes=1,no=2,missing=1
	1:[2240<7.535700e-02] yes=7,no=8,missing=7
		7:[275<3.860250e-02] yes=9,no=10,missing=9
			9:leaf=0.00967254
			10:leaf=-0.04469860
		8:[286<1.426170e-01] yes=11,no=12,missing=11
			11:leaf=0.05566080
			12:leaf=-0.00991186
	2:[529<1.111680e-01] yes=3,no=4,missing=3
		3:[92<5.000000e-01] yes=5,no=6,missing=5
			5:leaf=-0.06269020
			6:leaf=0.01768510
		4:leaf=0.03201660
booster[191]:
0:[398<8.372750e-01] yes=1,no=2,missing=1
	1:[311<3.213600e-02] yes=3,no=4,missing=3
		3:[319<4.517500e-02] yes=5,no=6,missing=5
			5:leaf=0.00687976
			6:leaf=-0.04412340
		4:[2126<6.435500e-03] yes=7,no=8,missing=7
			7:leaf=0.04811380
			8:leaf=-0.00499188
	2:leaf=-0.03043980
booster[192]:
0:[1146<4.065550e-01] yes=1,no=2,missing=1
	1:[556<2.052700e-01] yes=5,no=6,missing=5
		5:[2600<3.653300e-02] yes=7,no=8,missing=7
			7:leaf=-0.02787500
			8:leaf=0.02165580
		6:[2202<4.361400e-02] yes=9,no=10,missing=9
			9:leaf=0.04642100
			10:leaf=-0.00734240
	2:[1398<1.713760e-01] yes=3,no=4,missing=3
		3:leaf=0.05523800
		4:leaf=-0.01683360
booster[193]:
0:[3146<1.261740e-01] yes=1,no=2,missing=1
	1:[2915<-9.479100e-02] yes=3,no=4,missing=3
		3:[2746<-1.425930e-01] yes=5,no=6,missing=5
			5:leaf=0.00952984
			6:leaf=-0.03122680
		4:leaf=0.04409320
	2:leaf=-0.02935500
booster[194]:
0:[467<1.747900e-02] yes=1,no=2,missing=1
	1:[1146<4.065550e-01] yes=3,no=4,missing=3
		3:[1146<3.296400e-02] yes=5,no=6,missing=5
			5:leaf=0.01288860
			6:leaf=-0.03359740
		4:leaf=0.03934380
	2:[2155<1.420310e-01] yes=7,no=8,missing=7
		7:leaf=-0.04510060
		8:leaf=0.01183580
booster[195]:
0:[2225<9.476500e-03] yes=1,no=2,missing=1
	1:[3005<-1.095130e-01] yes=3,no=4,missing=3
		3:[2746<-1.425930e-01] yes=5,no=6,missing=5
			5:leaf=-0.00035297
			6:leaf=-0.05472460
		4:leaf=0.03042240
	2:[667<4.920800e-02] yes=7,no=8,missing=7
		7:leaf=0.04559020
		8:[808<3.737030e-01] yes=9,no=10,missing=9
			9:leaf=-0.03033660
			10:leaf=0.01421070
booster[196]:
0:[232<1.097280e+00] yes=1,no=2,missing=1
	1:[1776<1.832700e-02] yes=5,no=6,missing=5
		5:[97<8.244860e-01] yes=9,no=10,missing=9
			9:leaf=-0.00391312
			10:leaf=0.03985960
		6:[690<3.360450e-02] yes=7,no=8,missing=7
			7:leaf=-0.05483620
			8:leaf=0.02327960
	2:[562<1.833800e-01] yes=3,no=4,missing=3
		3:leaf=-0.04843340
		4:leaf=0.02294700
booster[197]:
0:[2747<2.184250e+00] yes=1,no=2,missing=1
	1:[3088<3.542500e-03] yes=3,no=4,missing=3
		3:[427<9.501640e-01] yes=5,no=6,missing=5
			5:leaf=-0.00361886
			6:leaf=0.04381900
		4:[1595<1.205740e-01] yes=7,no=8,missing=7
			7:leaf=-0.06496880
			8:leaf=0.00487004
	2:leaf=0.02877500
booster[198]:
0:[383<7.800200e-01] yes=1,no=2,missing=1
	1:[1821<1.396950e-01] yes=5,no=6,missing=5
		5:[835<1.248100e-02] yes=7,no=8,missing=7
			7:leaf=-0.01712550
			8:leaf=0.03098000
		6:[2015<3.700650e-02] yes=9,no=10,missing=9
			9:leaf=0.05853840
			10:leaf=-0.01164150
	2:[86<5.000000e-01] yes=3,no=4,missing=3
		3:[1244<2.655260e-01] yes=11,no=12,missing=11
			11:leaf=0.03129720
			12:leaf=-0.01041740
		4:leaf=-0.05834660
booster[199]:
0:[1271<4.261400e-02] yes=1,no=2,missing=1
	1:[129<5.530700e-01] yes=5,no=6,missing=5
		5:[2038<1.085400e-02] yes=7,no=8,missing=7
			7:leaf=-0.00550808
			8:leaf=0.03521960
		6:leaf=-0.03033620
	2:[1695<3.917800e-01] yes=3,no=4,missing=3
		3:leaf=-0.04478060
		4:leaf=0.02054780
